{"learner":{"attributes":{"scikit_learn":"{\"_estimator_type\": \"regressor\"}"},"feature_names":["temperature_2m_mean","precipitation_sum","wind_speed_10m_max","wind_direction_10m_dominant"],"feature_types":["float","float","float","float"],"gradient_booster":{"model":{"gbtree_model_param":{"num_parallel_tree":"1","num_trees":"100"},"iteration_indptr":[0,1,2,3,4,5,6,7,8,9,10,11,12,13,14,15,16,17,18,19,20,21,22,23,24,25,26,27,28,29,30,31,32,33,34,35,36,37,38,39,40,41,42,43,44,45,46,47,48,49,50,51,52,53,54,55,56,57,58,59,60,61,62,63,64,65,66,67,68,69,70,71,72,73,74,75,76,77,78,79,80,81,82,83,84,85,86,87,88,89,90,91,92,93,94,95,96,97,98,99,100],"tree_info":[0,0,0,0,0,0,0,0,0,0,0,0,0,0,0,0,0,0,0,0,0,0,0,0,0,0,0,0,0,0,0,0,0,0,0,0,0,0,0,0,0,0,0,0,0,0,0,0,0,0,0,0,0,0,0,0,0,0,0,0,0,0,0,0,0,0,0,0,0,0,0,0,0,0,0,0,0,0,0,0,0,0,0,0,0,0,0,0,0,0,0,0,0,0,0,0,0,0,0,0],"trees":[{"base_weights":[-8.3183926E-7,1.6873446E1,-4.6226463E0,3.1863827E1,-2.7096162E0,4.2025313E0,-7.590884E0,3.508501E1,-1.7322325E0,4.5691886E0,-1.0558164E1,1.4205541E1,-1.4182385E0,-4.9842095E0,-1.5672162E1,4.1024055E1,2.6644718E1,-5.299196E0,1.0744819E1,1.0660127E1,-2.577856E0,-1.3564571E0,-1.584945E1,1.6934769E1,1.7568544E0,-4.423092E-2,-1.0378196E1,-7.2458153E0,5.3977E-1,-1.6789337E1,-4.5599356E0,3.0601892E1,5.1334064E1,1.1611175E1,3.0180906E1,-8.72798E0,1.4026716E1,9.905344E0,1.5296847E0,1.7990595E1,7.074909E0,-1.3906579E-1,-9.025297E0,-7.8585076E0,8.296905E0,-1.6372742E1,8.071244E-1,2.0874292E1,1.2007736E1,7.3838406E0,-4.9664736E0,7.2631755E0,-1.0019649E0,-1.2994838E1,-2.7363493E0,-4.3648524E0,-1.1159532E1,-8.9670247E-1,7.712984E0,-1.502782E1,-2.0185019E1,-2.0458033E0,-9.044042E0,1.0206703E1,2.3175569E0,1.6382544E1,8.5483265E0,4.40111E0,-1.2514508E0,9.2046995E0,-3.144657E0,-1.3587315E0,-5.541095E0,5.3432467E-3,5.6071243E0,2.6071243E0,-1.2669852E0,6.1364403E0,1.5085492E0,-1.1906494E0,2.689508E0,4.6408442E-1,-3.4910948E0,1.1718507E0,-5.5403824E0,2.7094994E0,-4.519848E0,8.409161E0,-8.901356E-1,-3.6754096E0,-5.518103E0,6.6938715E0,3.9287689E0,4.59908E0,2.0203304E0,1.7140293E-1,5.2593513E0,1.7071244E0,-2.030026E0,2.392181E0,-8.9287573E-1,-6.161243E-1,9.2685586E-1,-2.0003822E0,-4.501741E0,-1.3539214E0,1.4071244E0,-3.6947463E0,-7.512212E-1,-2.4352255E0,-5.1162295E0,8.024227E-1,-7.0650727E-1,2.7377164E0,1.0037687E0,-6.71819E0,-4.1051297E0,-6.221581E0,2.3301488E-1,-1.5399073E0,1.5468508E0,-4.7145084E-1,-3.6571677E0],"categories":[],"categories_nodes":[],"categories_segments":[],"categories_sizes":[],"default_left":[0,0,0,0,0,0,0,0,0,0,0,0,0,0,0,0,0,0,0,0,0,0,0,0,0,0,0,0,0,0,0,0,0,0,0,0,0,0,0,0,0,0,0,0,0,0,0,0,0,0,0,0,0,0,0,0,0,0,0,0,0,0,0,0,0,0,0,0,0,0,0,0,0,0,0,0,0,0,0,0,0,0,0,0,0,0,0,0,0,0,0,0,0,0,0,0,0,0,0,0,0,0,0,0,0,0,0,0,0,0,0,0,0,0,0,0,0,0,0,0,0,0,0],"id":0,"left_children":[1,3,5,7,9,11,13,15,17,19,21,23,25,27,29,31,33,35,37,39,41,43,45,47,49,51,53,55,57,59,61,63,65,67,69,71,73,-1,75,77,79,81,83,85,87,89,-1,91,93,95,97,99,101,103,105,107,109,111,113,115,117,119,121,-1,-1,-1,-1,-1,-1,-1,-1,-1,-1,-1,-1,-1,-1,-1,-1,-1,-1,-1,-1,-1,-1,-1,-1,-1,-1,-1,-1,-1,-1,-1,-1,-1,-1,-1,-1,-1,-1,-1,-1,-1,-1,-1,-1,-1,-1,-1,-1,-1,-1,-1,-1,-1,-1,-1,-1,-1,-1,-1,-1],"loss_changes":[2.1254989E5,1.7211111E5,5.606348E4,3.598947E4,1.4615895E4,3.0325215E4,3.3647367E4,1.4095531E4,1.3920944E3,5.8172646E3,5.9672314E3,6.561457E3,4.259164E3,1.5145506E4,4.7650234E3,1.7340719E4,6.4542266E3,1.7127697E3,1.3862333E3,1.7649731E3,9.7363025E2,2.952467E3,8.007871E2,2.8355625E3,1.3986263E3,2.1138416E3,8.8425635E2,9.64802E3,3.644272E3,1.8141328E3,3.9862225E2,6.7795547E3,4.9503906E3,1.3165356E3,2.4217266E3,7.753898E2,2.610003E2,0E0,2.838748E2,6.31791E2,1.0792786E3,9.097415E2,2.147962E3,3.54475E3,4.3064907E3,4.076582E2,0E0,6.813281E2,1.1757705E3,1.3725566E3,3.6465704E2,2.7845496E2,1.1553401E3,3.325298E2,1.9270697E2,7.322285E3,6.388793E3,1.5427521E3,3.3346973E2,2.0399844E3,1.3853828E3,5.823187E2,2.8650464E2,0E0,0E0,0E0,0E0,0E0,0E0,0E0,0E0,0E0,0E0,0E0,0E0,0E0,0E0,0E0,0E0,0E0,0E0,0E0,0E0,0E0,0E0,0E0,0E0,0E0,0E0,0E0,0E0,0E0,0E0,0E0,0E0,0E0,0E0,0E0,0E0,0E0,0E0,0E0,0E0,0E0,0E0,0E0,0E0,0E0,0E0,0E0,0E0,0E0,0E0,0E0,0E0,0E0,0E0,0E0,0E0,0E0,0E0,0E0,0E0],"parents":[2147483647,0,0,1,1,2,2,3,3,4,4,5,5,6,6,7,7,8,8,9,9,10,10,11,11,12,12,13,13,14,14,15,15,16,16,17,17,18,18,19,19,20,20,21,21,22,22,23,23,24,24,25,25,26,26,27,27,28,28,29,29,30,30,31,31,32,32,33,33,34,34,35,35,36,36,38,38,39,39,40,40,41,41,42,42,43,43,44,44,45,45,47,47,48,48,49,49,50,50,51,51,52,52,53,53,54,54,55,55,56,56,57,57,58,58,59,59,60,60,61,61,62,62],"right_children":[2,4,6,8,10,12,14,16,18,20,22,24,26,28,30,32,34,36,38,40,42,44,46,48,50,52,54,56,58,60,62,64,66,68,70,72,74,-1,76,78,80,82,84,86,88,90,-1,92,94,96,98,100,102,104,106,108,110,112,114,116,118,120,122,-1,-1,-1,-1,-1,-1,-1,-1,-1,-1,-1,-1,-1,-1,-1,-1,-1,-1,-1,-1,-1,-1,-1,-1,-1,-1,-1,-1,-1,-1,-1,-1,-1,-1,-1,-1,-1,-1,-1,-1,-1,-1,-1,-1,-1,-1,-1,-1,-1,-1,-1,-1,-1,-1,-1,-1,-1,-1,-1,-1],"split_conditions":[9.031166E0,1.5226764E1,1.2144331E1,3.1999998E0,2E-1,1.3591584E1,2.1E0,6.8874154E0,1.4145756E1,2.0746122E1,1.9839235E1,1.6000001E0,3.1E0,2.479992E1,2.2049917E1,1.2485321E2,9.4539215E1,8.708249E0,1.420062E1,4.3874164E0,6.8874154E0,1.4450668E2,2.4193849E2,9.686609E0,1.1131167E1,7.4128532E0,2.0568666E1,2.1568298E2,2.87895E1,2.0853236E2,2.1568298E2,5E-1,4E-1,8.479606E1,3.3835757E2,1.4282452E2,3.6999998E0,9.905344E0,5.3040833E0,1.9586119E1,3.4987564E1,4.337942E1,2.1794127E1,4.5749164E0,7E-1,5.160333E0,8.071244E-1,2.0164449E2,2E-1,1.0433249E1,2.1E0,2.3962418E1,2.4035332E1,1.1630098E2,2.4035332E1,3.6638954E1,1.7654688E1,1.8479414E2,1.7786331E1,3.763051E1,3.5357135E2,1.8532135E1,2.8E0,1.0206703E1,2.3175569E0,1.6382544E1,8.5483265E0,4.40111E0,-1.2514508E0,9.2046995E0,-3.144657E0,-1.3587315E0,-5.541095E0,5.3432467E-3,5.6071243E0,2.6071243E0,-1.2669852E0,6.1364403E0,1.5085492E0,-1.1906494E0,2.689508E0,4.6408442E-1,-3.4910948E0,1.1718507E0,-5.5403824E0,2.7094994E0,-4.519848E0,8.409161E0,-8.901356E-1,-3.6754096E0,-5.518103E0,6.6938715E0,3.9287689E0,4.59908E0,2.0203304E0,1.7140293E-1,5.2593513E0,1.7071244E0,-2.030026E0,2.392181E0,-8.9287573E-1,-6.161243E-1,9.2685586E-1,-2.0003822E0,-4.501741E0,-1.3539214E0,1.4071244E0,-3.6947463E0,-7.512212E-1,-2.4352255E0,-5.1162295E0,8.024227E-1,-7.0650727E-1,2.7377164E0,1.0037687E0,-6.71819E0,-4.1051297E0,-6.221581E0,2.3301488E-1,-1.5399073E0,1.5468508E0,-4.7145084E-1,-3.6571677E0],"split_indices":[0,2,2,1,1,0,1,0,2,2,2,1,1,0,0,3,3,0,2,0,0,3,3,2,0,2,0,3,0,3,3,1,1,3,3,3,1,0,0,2,3,3,2,0,1,0,0,3,1,0,1,0,0,3,0,3,2,3,2,3,3,2,1,0,0,0,0,0,0,0,0,0,0,0,0,0,0,0,0,0,0,0,0,0,0,0,0,0,0,0,0,0,0,0,0,0,0,0,0,0,0,0,0,0,0,0,0,0,0,0,0,0,0,0,0,0,0,0,0,0,0,0,0],"split_type":[0,0,0,0,0,0,0,0,0,0,0,0,0,0,0,0,0,0,0,0,0,0,0,0,0,0,0,0,0,0,0,0,0,0,0,0,0,0,0,0,0,0,0,0,0,0,0,0,0,0,0,0,0,0,0,0,0,0,0,0,0,0,0,0,0,0,0,0,0,0,0,0,0,0,0,0,0,0,0,0,0,0,0,0,0,0,0,0,0,0,0,0,0,0,0,0,0,0,0,0,0,0,0,0,0,0,0,0,0,0,0,0,0,0,0,0,0,0,0,0,0,0,0],"sum_hessian":[2.723E3,5.85E2,2.138E3,3.31E2,2.54E2,5.38E2,1.6E3,3.02E2,2.9E1,1.32E2,1.22E2,1.93E2,3.45E2,1.211E3,3.89E2,1.75E2,1.27E2,2.3E1,6E0,7.1E1,6.1E1,4.5E1,7.7E1,1.58E2,3.5E1,3E2,4.5E1,8.59E2,3.52E2,3.53E2,3.6E1,8.9E1,8.6E1,2.5E1,1.02E2,2E1,3E0,1E0,5E0,2.2E1,4.9E1,4.5E1,1.6E1,2.7E1,1.8E1,7.5E1,2E0,8.6E1,7.2E1,1.9E1,1.6E1,3.4E1,2.66E2,3.3E1,1.2E1,4.96E2,3.63E2,2.94E2,5.8E1,2.36E2,1.17E2,2.4E1,1.2E1,7.7E1,1.2E1,7.4E1,1.2E1,2.1E1,4E0,1.01E2,1E0,1.5E1,5E0,1E0,2E0,2E0,3E0,1.8E1,4E0,7E0,4.2E1,4E1,5E0,7E0,9E0,8E0,1.9E1,6E0,1.2E1,2.7E1,4.8E1,7.1E1,1.5E1,4.3E1,2.9E1,1.2E1,7E0,2E0,1.4E1,3.2E1,2E0,2.12E2,5.4E1,9E0,2.4E1,1E1,2E0,9.3E1,4.03E2,2.41E2,1.22E2,8.5E1,2.09E2,4.3E1,1.5E1,3.4E1,2.02E2,1.14E2,3E0,1.7E1,7E0,4E0,8E0],"tree_param":{"num_deleted":"0","num_feature":"4","num_nodes":"123","size_leaf_vector":"1"}},{"base_weights":[1.6266339E-2,1.2076071E1,-3.2090378E0,2.4809402E1,4.833265E-1,1.8300434E0,-6.0049925E0,2.7342453E1,6.1248603E0,6.52824E0,-6.0203366E0,9.818874E0,-1.7978384E0,-7.7115993E0,5.679406E-1,3.4918793E1,2.172151E1,1.0398499E1,-6.9017467E0,1.0015208E1,-2.9491923E0,4.0588978E-1,-1.0768335E1,1.1662828E1,1.5692346E0,1.2102659E0,-5.237092E0,-6.1547832E0,-1.2557899E1,3.91296E0,-1.0641826E0,5.071872E1,3.157324E1,7.713002E0,2.4971657E1,4.9468336E0,1.862648E1,7.545764E0,-1.538313E1,1.0652547E1,-5.19888E0,-7.397095E0,3.6394E0,2.5631464E0,-1.00250635E1,-1.0467726E0,-1.15027275E1,1.5120687E1,9.147748E0,4.5765347E0,-2.7868888E0,4.175591E0,-3.103802E-1,-7.5479865E0,4.8449787E-1,-5.0560527E0,-1.2222876E1,-1.3087743E1,-4.0273833E0,2.4690135E0,8.021596E0,-3.09777E0,1.7859354E0,8.479615E-1,1.611693E1,9.689619E0,2.2053604E-1,3.294738E0,-2.8568995E0,5.237129E0,8.384139E0,2.219773E0,-1.4619925E0,-4.118351E-1,7.1393685E0,2.788704E-1,4.109153E0,-3.634924E-1,-5.39253E0,2.2049205E0,5.6349335E0,-3.9674683E0,5.2564985E-1,4.943924E0,-8.195649E-3,2.2004628E0,-9.223758E-1,-3.6854172E0,1.8857306E0,-8.9494723E-1,1.5857307E0,-4.1587343E0,-2.0381565E0,5.2147255E0,3.3342628E0,4.1188254E0,1.8782647E0,5.3634757E-1,3.686662E0,1.9787909E0,-1.7186147E0,-1.1582508E0,1.6442474E0,-4.2599386E-1,1.6065028E0,-1.4726943E0,-3.470764E0,-6.8680763E-1,1.0956074E0,-6.684241E-1,-2.220612E0,-2.5826876E0,-4.8726463E0,8.1809866E-1,-3.9872596E0,-3.744392E0,1.6055796E-1,3.8933325E-1,1.7536663E0,9.0373266E-1,2.6618414E0,-6.487283E-1,-2.4757504E0,7.001474E-1,-1.6354953E0],"categories":[],"categories_nodes":[],"categories_segments":[],"categories_sizes":[],"default_left":[0,0,0,0,0,0,0,0,0,0,0,0,0,0,0,0,0,0,0,0,0,0,0,0,0,0,0,0,0,0,0,0,0,0,0,0,0,0,0,0,0,0,0,0,0,0,0,0,0,0,0,0,0,0,0,0,0,0,0,0,0,0,0,0,0,0,0,0,0,0,0,0,0,0,0,0,0,0,0,0,0,0,0,0,0,0,0,0,0,0,0,0,0,0,0,0,0,0,0,0,0,0,0,0,0,0,0,0,0,0,0,0,0,0,0,0,0,0,0,0,0,0,0,0,0],"id":1,"left_children":[1,3,5,7,9,11,13,15,17,19,21,23,25,27,29,31,33,35,37,39,41,43,45,47,49,51,53,55,57,59,61,63,65,67,69,71,73,75,77,79,-1,81,83,85,87,89,91,93,95,97,99,101,103,105,107,109,111,113,115,117,119,121,123,-1,-1,-1,-1,-1,-1,-1,-1,-1,-1,-1,-1,-1,-1,-1,-1,-1,-1,-1,-1,-1,-1,-1,-1,-1,-1,-1,-1,-1,-1,-1,-1,-1,-1,-1,-1,-1,-1,-1,-1,-1,-1,-1,-1,-1,-1,-1,-1,-1,-1,-1,-1,-1,-1,-1,-1,-1,-1,-1,-1,-1,-1],"loss_changes":[1.0599293E5,8.486622E4,3.0302436E4,1.2800625E4,1.1912154E4,2.2276238E4,1.5518055E4,9.504797E3,1.964582E3,5.217996E3,4.4590815E3,3.6325684E3,5.4791787E3,8.206895E3,1.5655767E3,3.7374531E3,6.227078E3,1.0741191E3,1.2188914E3,2.1888125E3,1.287054E3,1.4433369E3,5.876719E2,1.56625E3,6.0226196E2,1.2774025E3,3.2694888E3,5.4919766E3,1.1495703E3,5.378639E2,1.1241533E3,2.150332E3,1.9003125E3,1.6824525E3,2.0610938E3,4.4546997E2,1.0669146E3,1.5006332E2,1.9861304E2,2.89642E3,0E0,1.4094935E3,8.479252E2,1.4483436E3,4.8264514E2,1.01603935E2,7.7252637E2,5.407969E2,1.448334E3,5.587313E2,5.622385E2,1.0281444E3,1.1894307E3,1.8109258E3,6.4097186E2,4.6740195E3,1.7048906E3,8.393242E2,6.623983E2,2.7319928E2,7.560315E1,5.2697705E2,3.339202E2,0E0,0E0,0E0,0E0,0E0,0E0,0E0,0E0,0E0,0E0,0E0,0E0,0E0,0E0,0E0,0E0,0E0,0E0,0E0,0E0,0E0,0E0,0E0,0E0,0E0,0E0,0E0,0E0,0E0,0E0,0E0,0E0,0E0,0E0,0E0,0E0,0E0,0E0,0E0,0E0,0E0,0E0,0E0,0E0,0E0,0E0,0E0,0E0,0E0,0E0,0E0,0E0,0E0,0E0,0E0,0E0,0E0,0E0,0E0,0E0,0E0,0E0],"parents":[2147483647,0,0,1,1,2,2,3,3,4,4,5,5,6,6,7,7,8,8,9,9,10,10,11,11,12,12,13,13,14,14,15,15,16,16,17,17,18,18,19,19,20,20,21,21,22,22,23,23,24,24,25,25,26,26,27,27,28,28,29,29,30,30,31,31,32,32,33,33,34,34,35,35,36,36,37,37,38,38,39,39,41,41,42,42,43,43,44,44,45,45,46,46,47,47,48,48,49,49,50,50,51,51,52,52,53,53,54,54,55,55,56,56,57,57,58,58,59,59,60,60,61,61,62,62],"right_children":[2,4,6,8,10,12,14,16,18,20,22,24,26,28,30,32,34,36,38,40,42,44,46,48,50,52,54,56,58,60,62,64,66,68,70,72,74,76,78,80,-1,82,84,86,88,90,92,94,96,98,100,102,104,106,108,110,112,114,116,118,120,122,124,-1,-1,-1,-1,-1,-1,-1,-1,-1,-1,-1,-1,-1,-1,-1,-1,-1,-1,-1,-1,-1,-1,-1,-1,-1,-1,-1,-1,-1,-1,-1,-1,-1,-1,-1,-1,-1,-1,-1,-1,-1,-1,-1,-1,-1,-1,-1,-1,-1,-1,-1,-1,-1,-1,-1,-1,-1,-1,-1,-1,-1,-1],"split_conditions":[8.910332E0,1.3363711E1,1.337825E1,1.2000002E0,1.9839235E1,1.3402E1,2.511867E1,6.0749164E0,4.2000003E0,1.6000001E0,1E-1,1.6000001E0,1E-1,4.1E0,1.9672095E2,7.7879906E0,9.7226135E1,1.2485321E2,5.4615753E1,3.0327475E2,7.2E0,2.7103E1,2.0323246E1,9.504273E0,1.1131167E1,1.76895E1,2.1785334E1,2.3224882E1,2.2939499E1,2.859575E1,2.738742E1,3.6249163E0,7E-1,1.2413476E1,8.654986E0,1.2620554E1,5.722833E0,5.9E0,4.5749164E0,1.26007195E2,-5.19888E0,7.181166E0,1.420062E1,3.6326923E1,3.4094055E1,2.4162947E1,4.4004986E1,1.1289498E1,1.0306167E1,1.0727E1,2.7E0,5.238251E1,2.6762413E1,1.1631956E1,2.4389498E1,1.6354084E1,1.3868667E1,9.031166E0,6.2999997E0,1.9296135E1,2.9144407E1,1.825026E1,1.9969458E1,8.479615E-1,1.611693E1,9.689619E0,2.2053604E-1,3.294738E0,-2.8568995E0,5.237129E0,8.384139E0,2.219773E0,-1.4619925E0,-4.118351E-1,7.1393685E0,2.788704E-1,4.109153E0,-3.634924E-1,-5.39253E0,2.2049205E0,5.6349335E0,-3.9674683E0,5.2564985E-1,4.943924E0,-8.195649E-3,2.2004628E0,-9.223758E-1,-3.6854172E0,1.8857306E0,-8.9494723E-1,1.5857307E0,-4.1587343E0,-2.0381565E0,5.2147255E0,3.3342628E0,4.1188254E0,1.8782647E0,5.3634757E-1,3.686662E0,1.9787909E0,-1.7186147E0,-1.1582508E0,1.6442474E0,-4.2599386E-1,1.6065028E0,-1.4726943E0,-3.470764E0,-6.8680763E-1,1.0956074E0,-6.684241E-1,-2.220612E0,-2.5826876E0,-4.8726463E0,8.1809866E-1,-3.9872596E0,-3.744392E0,1.6055796E-1,3.8933325E-1,1.7536663E0,9.0373266E-1,2.6618414E0,-6.487283E-1,-2.4757504E0,7.001474E-1,-1.6354953E0],"split_indices":[0,2,2,1,2,0,0,0,1,1,1,1,1,1,3,2,3,3,3,3,1,2,3,2,0,0,0,2,0,0,0,0,1,2,2,2,0,1,0,3,0,0,2,3,3,2,3,0,0,0,1,3,0,2,0,0,0,0,1,2,3,2,2,0,0,0,0,0,0,0,0,0,0,0,0,0,0,0,0,0,0,0,0,0,0,0,0,0,0,0,0,0,0,0,0,0,0,0,0,0,0,0,0,0,0,0,0,0,0,0,0,0,0,0,0,0,0,0,0,0,0,0,0,0,0],"split_type":[0,0,0,0,0,0,0,0,0,0,0,0,0,0,0,0,0,0,0,0,0,0,0,0,0,0,0,0,0,0,0,0,0,0,0,0,0,0,0,0,0,0,0,0,0,0,0,0,0,0,0,0,0,0,0,0,0,0,0,0,0,0,0,0,0,0,0,0,0,0,0,0,0,0,0,0,0,0,0,0,0,0,0,0,0,0,0,0,0,0,0,0,0,0,0,0,0,0,0,0,0,0,0,0,0,0,0,0,0,0,0,0,0,0,0,0,0,0,0,0,0,0,0,0,0],"sum_hessian":[2.723E3,5.74E2,2.149E3,2.73E2,3.01E2,7.67E2,1.382E3,2.4E2,3.3E1,1.56E2,1.45E2,2.39E2,5.28E2,1.097E3,2.85E2,1E2,1.4E2,2.5E1,8E0,1.14E2,4.2E1,6.2E1,8.3E1,1.95E2,4.4E1,2.82E2,2.46E2,8.32E2,2.65E2,9.3E1,1.92E2,1.5E1,8.5E1,2.7E1,1.13E2,1.6E1,9E0,3E0,5E0,1.12E2,2E0,2.5E1,1.7E1,5.2E1,1E1,6E0,7.7E1,8E1,1.15E2,2.6E1,1.8E1,9.5E1,1.87E2,1.75E2,7.1E1,7.06E2,1.26E2,2.49E2,1.6E1,7E1,2.3E1,1.12E2,8E1,1E0,1.4E1,8.3E1,2E0,2.3E1,4E0,3.4E1,7.9E1,1.3E1,3E0,2E0,7E0,2E0,1E0,1E0,4E0,8.1E1,3.1E1,1.5E1,1E1,3E0,1.4E1,2.8E1,2.4E1,9E0,1E0,5E0,1E0,5E1,2.7E1,4.9E1,3.1E1,4.3E1,7.2E1,2E1,6E0,4E0,1.4E1,1.3E1,8.2E1,1.57E2,3E1,1.07E2,6.8E1,3.8E1,3.3E1,3.21E2,3.85E2,6.8E1,5.8E1,3E0,2.46E2,5E0,1.1E1,5.3E1,1.7E1,4E0,1.9E1,9.6E1,1.6E1,7.5E1,5E0],"tree_param":{"num_deleted":"0","num_feature":"4","num_nodes":"125","size_leaf_vector":"1"}},{"base_weights":[2.822567E-2,6.329288E0,-3.0791628E0,1.6479933E1,9.416303E-1,-1.4729172E0,-7.184273E0,1.9924776E1,7.894927E0,5.9811354E0,-9.1967577E-1,3.6111133E0,-2.8171284E0,-6.039125E0,-1.0546271E1,2.6022821E1,1.5951371E1,9.143343E0,-1.1314848E1,7.186143E0,-2.2796829E0,1.4622172E0,-3.3417926E0,1.0619025E1,-1.3426712E0,-4.306931E0,3.265373E-1,-4.303276E0,-9.410956E0,-1.08669195E1,1.9629759E0,1.5241819E1,3.0440557E1,7.1157036E0,1.8468258E1,5.26558E0,1.4919168E1,-5.6436963E0,-2.8630314E0,9.943292E0,3.3901746E0,1.8478142E0,-7.004711E0,-7.349484E0,1.7893802E0,-4.230081E0,1.4853249E0,1.1179999E1,-4.1591043E0,1.4459532E0,-5.526402E0,-1.6971105E0,-5.809474E0,-2.2522952E-1,5.7446775E0,-5.544905E0,3.3512878E-1,1.8537344E0,-9.876373E0,-1.1138648E1,2.734022E-1,2.2673757E0,6.551106E0,1.2396551E1,7.768561E0,6.818558E0,1.5951693E0,6.378489E0,3.8730228E0,2.0228148E0,-1.1658442E0,5.4905796E0,-1.175215E0,1.2200013E-1,-1.9008191E0,5.5547066E0,2.5362463E0,2.4501538E0,-1.5091196E-1,1.7082809E0,-8.8430583E-1,-2.8277128E0,2.2176397E0,-4.0667734E0,-2.743339E-1,1.1737304E0,1.5071693E-2,2.6149505E-1,-1.5994816E0,9.8902655E-1,-1.1738195E0,2.2440312E0,4.547285E0,-2.928142E0,8.066567E-1,-8.508576E-1,-3.43127E0,3.6420712E-1,-2.0983944E0,-1.8356642E0,4.353916E0,1.6112357E-1,-6.4246625E-1,1.1437544E0,2.545868E0,5.4520744E-1,-1.8058366E0,1.2399884E0,-3.02066E0,2.369743E0,-2.0474167E0,-3.2557764E0,-1.1576811E0,-3.4204376E0,-1.211978E-1,5.656426E-1,-6.844225E-1],"categories":[],"categories_nodes":[],"categories_segments":[],"categories_sizes":[],"default_left":[0,0,0,0,0,0,0,0,0,0,0,0,0,0,0,0,0,0,0,0,0,0,0,0,0,0,0,0,0,0,0,0,0,0,0,0,0,0,0,0,0,0,0,0,0,0,0,0,0,0,0,0,0,0,0,0,0,0,0,0,0,0,0,0,0,0,0,0,0,0,0,0,0,0,0,0,0,0,0,0,0,0,0,0,0,0,0,0,0,0,0,0,0,0,0,0,0,0,0,0,0,0,0,0,0,0,0,0,0,0,0,0,0,0,0,0,0],"id":2,"left_children":[1,3,5,7,9,11,13,15,17,19,21,23,25,27,29,31,33,35,37,39,41,43,45,47,49,51,53,55,57,59,-1,61,63,65,67,69,71,-1,73,75,77,79,81,83,85,87,89,91,-1,93,95,97,99,101,103,105,107,109,111,113,115,-1,-1,-1,-1,-1,-1,-1,-1,-1,-1,-1,-1,-1,-1,-1,-1,-1,-1,-1,-1,-1,-1,-1,-1,-1,-1,-1,-1,-1,-1,-1,-1,-1,-1,-1,-1,-1,-1,-1,-1,-1,-1,-1,-1,-1,-1,-1,-1,-1,-1,-1,-1,-1,-1,-1,-1],"loss_changes":[5.3354992E4,4.9203863E4,1.2023131E4,9.069781E3,5.530357E3,8.983229E3,1.9113535E3,4.963961E3,2.2857974E3,1.5991235E3,2.4914216E3,9.561071E3,4.867503E3,2.2129023E3,7.779883E2,3.6320078E3,2.9152383E3,1.8476084E3,3.2634332E2,1.4210723E3,4.224967E2,6.41615E2,9.2388794E2,1.7206904E3,1.8980215E3,2.754704E3,1.00279315E3,1.4762075E3,6.9986914E2,3.8749316E2,0E0,1.2032329E3,1.8975195E3,7.7768274E2,1.3712734E3,7.426754E2,2.238162E3,0E0,4.7999733E1,8.647036E2,1.1199825E3,2.3813304E2,4.182233E2,3.071125E2,7.788769E2,1.02180884E3,3.4535822E2,1.5348965E3,0E0,1.3912368E3,1.0012084E3,4.0027485E3,2.899504E3,4.4670328E2,1.3185681E2,7.166802E2,2.215003E3,3.6869836E2,6.924092E2,3.4521973E2,2.0775702E1,0E0,0E0,0E0,0E0,0E0,0E0,0E0,0E0,0E0,0E0,0E0,0E0,0E0,0E0,0E0,0E0,0E0,0E0,0E0,0E0,0E0,0E0,0E0,0E0,0E0,0E0,0E0,0E0,0E0,0E0,0E0,0E0,0E0,0E0,0E0,0E0,0E0,0E0,0E0,0E0,0E0,0E0,0E0,0E0,0E0,0E0,0E0,0E0,0E0,0E0,0E0,0E0,0E0,0E0,0E0,0E0],"parents":[2147483647,0,0,1,1,2,2,3,3,4,4,5,5,6,6,7,7,8,8,9,9,10,10,11,11,12,12,13,13,14,14,15,15,16,16,17,17,18,18,19,19,20,20,21,21,22,22,23,23,24,24,25,25,26,26,27,27,28,28,29,29,31,31,32,32,33,33,34,34,35,35,36,36,38,38,39,39,40,40,41,41,42,42,43,43,44,44,45,45,46,46,47,47,49,49,50,50,51,51,52,52,53,53,54,54,55,55,56,56,57,57,58,58,59,59,60,60],"right_children":[2,4,6,8,10,12,14,16,18,20,22,24,26,28,30,32,34,36,38,40,42,44,46,48,50,52,54,56,58,60,-1,62,64,66,68,70,72,-1,74,76,78,80,82,84,86,88,90,92,-1,94,96,98,100,102,104,106,108,110,112,114,116,-1,-1,-1,-1,-1,-1,-1,-1,-1,-1,-1,-1,-1,-1,-1,-1,-1,-1,-1,-1,-1,-1,-1,-1,-1,-1,-1,-1,-1,-1,-1,-1,-1,-1,-1,-1,-1,-1,-1,-1,-1,-1,-1,-1,-1,-1,-1,-1,-1,-1,-1,-1,-1,-1,-1,-1],"split_conditions":[1.2758432E1,1.0037417E1,1.6000001E0,1E-1,1.3402E1,9.90825E0,2.3950148E1,6.0749164E0,2.2914468E2,4.2000003E0,1E-1,1.6854767E1,2.479992E1,1.9883853E2,2.571712E2,3.835333E0,1.1201796E2,1.484732E2,8.374916E0,1.6315611E2,1.484732E2,1.9601294E1,2.4035332E1,3.0327475E2,2.2932877E1,1.4847835E1,2.9385338E1,1.6529164E2,7.9811654E0,2.2049917E1,1.9629759E0,1.1045512E2,4.7686667E0,7.4128532E0,8.593666E0,1.3976366E2,3.1999998E0,-5.6436963E0,8.4963045E0,7.7043357E0,1.0889501E1,1.024578E1,1.3400001E1,2.0064499E1,1.6243301E2,8.714677E0,1.1923557E1,1.1630098E2,-4.1591043E0,1.7238699E1,6.8874154E0,2E-1,1.6E0,2.6251227E2,3.0341583E1,3.7249167E0,1.03E1,7.8E0,2.2049917E1,4.5400005E1,2.4035332E1,2.2673757E0,6.551106E0,1.2396551E1,7.768561E0,6.818558E0,1.5951693E0,6.378489E0,3.8730228E0,2.0228148E0,-1.1658442E0,5.4905796E0,-1.175215E0,1.2200013E-1,-1.9008191E0,5.5547066E0,2.5362463E0,2.4501538E0,-1.5091196E-1,1.7082809E0,-8.8430583E-1,-2.8277128E0,2.2176397E0,-4.0667734E0,-2.743339E-1,1.1737304E0,1.5071693E-2,2.6149505E-1,-1.5994816E0,9.8902655E-1,-1.1738195E0,2.2440312E0,4.547285E0,-2.928142E0,8.066567E-1,-8.508576E-1,-3.43127E0,3.6420712E-1,-2.0983944E0,-1.8356642E0,4.353916E0,1.6112357E-1,-6.4246625E-1,1.1437544E0,2.545868E0,5.4520744E-1,-1.8058366E0,1.2399884E0,-3.02066E0,2.369743E0,-2.0474167E0,-3.2557764E0,-1.1576811E0,-3.4204376E0,-1.211978E-1,5.656426E-1,-6.844225E-1],"split_indices":[2,0,1,1,0,0,2,0,3,1,1,2,0,3,3,0,3,3,0,3,3,3,0,3,2,0,0,3,0,0,0,3,0,2,0,3,1,0,2,2,0,2,1,0,3,2,2,3,0,2,0,1,1,3,0,0,1,1,0,1,0,0,0,0,0,0,0,0,0,0,0,0,0,0,0,0,0,0,0,0,0,0,0,0,0,0,0,0,0,0,0,0,0,0,0,0,0,0,0,0,0,0,0,0,0,0,0,0,0,0,0,0,0,0,0,0,0],"split_type":[0,0,0,0,0,0,0,0,0,0,0,0,0,0,0,0,0,0,0,0,0,0,0,0,0,0,0,0,0,0,0,0,0,0,0,0,0,0,0,0,0,0,0,0,0,0,0,0,0,0,0,0,0,0,0,0,0,0,0,0,0,0,0,0,0,0,0,0,0,0,0,0,0,0,0,0,0,0,0,0,0,0,0,0,0,0,0,0,0,0,0,0,0,0,0,0,0,0,0,0,0,0,0,0,0,0,0,0,0,0,0,0,0,0,0,0,0],"sum_hessian":[2.723E3,8.99E2,1.824E3,3.11E2,5.88E2,1.312E3,5.12E2,2.21E2,9E1,1.58E2,4.3E2,2.74E2,1.038E3,3.84E2,1.28E2,8.5E1,1.36E2,8.5E1,5E0,1.38E2,2E1,2.17E2,2.13E2,1.13E2,1.61E2,7.04E2,3.34E2,2.55E2,1.29E2,1.26E2,2E0,2.6E1,5.9E1,3.1E1,1.05E2,5.2E1,3.3E1,2E0,3E0,7.9E1,5.9E1,1.1E1,9E0,7E0,2.1E2,1.8E2,3.3E1,1.11E2,2E0,9.7E1,6.4E1,2.58E2,4.46E2,3.04E2,3E1,2.01E2,5.4E1,5E0,1.24E2,1.23E2,3E0,1.3E1,1.3E1,1.5E1,4.4E1,2E0,2.9E1,6.8E1,3.7E1,4.5E1,7E0,2.8E1,5E0,2E0,1E0,1E1,6.9E1,2.6E1,3.3E1,6E0,5E0,8E0,1E0,3E0,4E0,9.4E1,1.16E2,3.2E1,1.48E2,2.5E1,8E0,5.9E1,5.2E1,9E0,8.8E1,4.5E1,1.9E1,1.67E2,9.1E1,4.4E2,6E0,2.18E2,8.6E1,1.9E1,1.1E1,1.2E1,1.89E2,4E1,1.4E1,3E0,2E0,1.06E2,1.8E1,1.2E2,3E0,2E0,1E0],"tree_param":{"num_deleted":"0","num_feature":"4","num_nodes":"117","size_leaf_vector":"1"}},{"base_weights":[3.543987E-2,6.1968265E0,-1.5762355E0,1.1513405E1,-1.7702091E0,-1.1494062E-1,-5.0312676E0,1.2710059E1,-1.7166853E0,1.9101415E0,-4.8975797E0,3.7569878E0,-1.3208519E0,-5.783222E0,-8.9784193E-1,1.6615776E1,9.330014E0,-4.9572835E0,7.4095454E0,4.1971307E0,-2.067767E0,-6.527776E0,3.7362072E-1,5.0292273E0,3.8615105E-1,-7.579387E-1,-6.234061E0,-4.478153E0,-8.052643E0,-1.5491607E0,6.7859697E0,1.1589877E1,1.880532E1,1.2779733E1,6.0855517E0,-6.5417523E0,7.258269E0,2.1036514E1,-4.973939E0,5.974856E0,-1.382935E0,3.6153543E-1,-1.1526505E1,-1.3119153E0,-1.0043683E1,1.36876335E1,-2.2011364E0,8.240553E0,3.8155117E0,-5.562281E-1,5.5207806E0,-1.2859968E0,1.8446537E0,-7.2496266E0,-5.0741756E-1,-8.905336E0,-3.2454903E0,-4.678826E0,-1.0044379E1,6.1874986E-1,-3.4259388E0,3.7384644E-1,7.3993497E0,4.205893E0,7.7528775E-1,7.1810946E0,3.7451837E0,2.4942176E0,5.212722E0,1.5249028E0,6.573499E0,-8.3808136E-1,-3.0031621E0,3.0696518E0,1.9656946E-1,1.4837226E0,7.4254575E0,8.372902E-1,-3.3242595E0,1.4636713E0,5.2897696E0,-2.2004778E0,2.450327E0,-1.289736E0,3.824934E0,-7.7897817E-1,-3.7293797E0,-1.0120554E0,2.1295457E0,-3.6620877E0,-1.5565548E0,5.934877E0,9.089398E-1,5.1646495E-1,-2.07632E0,2.1064107E0,4.757767E0,1.3742776E0,1.4557272E-1,8.157781E-1,-1.1665105E0,5.0113076E-1,-6.111447E-1,-1.599528E0,6.387907E-1,-3.272165E0,-1.8807366E0,8.8659054E-1,-1.1758186E0,-1.7236822E0,-3.8258107E0,-3.457355E-1,-1.9596425E0,-7.0297927E-1,-3.4317772E0,-3.3300502E0,-2.2171915E0,-1.2495615E0,1.135541E0,-2.7555647E-1,-2.2405937E0,3.027815E0,1.291038E0],"categories":[],"categories_nodes":[],"categories_segments":[],"categories_sizes":[],"default_left":[0,0,0,0,0,0,0,0,0,0,0,0,0,0,0,0,0,0,0,0,0,0,0,0,0,0,0,0,0,0,0,0,0,0,0,0,0,0,0,0,0,0,0,0,0,0,0,0,0,0,0,0,0,0,0,0,0,0,0,0,0,0,0,0,0,0,0,0,0,0,0,0,0,0,0,0,0,0,0,0,0,0,0,0,0,0,0,0,0,0,0,0,0,0,0,0,0,0,0,0,0,0,0,0,0,0,0,0,0,0,0,0,0,0,0,0,0,0,0,0,0,0,0],"id":3,"left_children":[1,3,5,7,9,11,13,15,17,19,21,23,25,27,29,31,33,35,37,39,41,43,45,47,49,51,53,55,57,59,61,63,65,67,69,71,73,75,77,79,81,83,85,87,89,91,93,95,97,99,-1,101,103,105,107,109,111,113,115,117,119,-1,121,-1,-1,-1,-1,-1,-1,-1,-1,-1,-1,-1,-1,-1,-1,-1,-1,-1,-1,-1,-1,-1,-1,-1,-1,-1,-1,-1,-1,-1,-1,-1,-1,-1,-1,-1,-1,-1,-1,-1,-1,-1,-1,-1,-1,-1,-1,-1,-1,-1,-1,-1,-1,-1,-1,-1,-1,-1,-1,-1,-1],"loss_changes":[2.7059508E4,2.3952297E4,1.0904875E4,5.3888125E3,2.6220845E3,7.097481E3,1.9902393E3,3.9506406E3,8.9439014E2,9.639093E2,1.0593889E3,1.5462104E3,3.2007334E3,1.5721699E3,5.109737E2,1.3556797E3,1.8137568E3,4.7329535E2,1.4546292E3,6.728911E2,9.0031445E2,1.7106406E3,1.0585388E3,9.897383E2,1.7080687E3,1.4330393E3,6.883999E2,1.8647544E3,1.2767959E3,3.805077E2,1.7963379E1,9.703169E2,2.880207E3,1.5180029E3,1.3007283E3,2.3206512E2,5.2205933E1,1.1669495E2,2.680249E2,5.6556287E2,1.0262854E3,1.9024077E3,3.2356567E1,7.0016406E2,5.2483594E2,2.648747E2,4.932998E2,5.481343E2,4.8719116E2,1.0583545E3,0E0,1.9265557E3,3.708778E2,2.9383594E2,2.3606267E2,8.384756E2,1.8704631E3,1.1574E3,2.6258203E2,6.8227124E2,4.9997748E2,0E0,1.4934967E1,0E0,0E0,0E0,0E0,0E0,0E0,0E0,0E0,0E0,0E0,0E0,0E0,0E0,0E0,0E0,0E0,0E0,0E0,0E0,0E0,0E0,0E0,0E0,0E0,0E0,0E0,0E0,0E0,0E0,0E0,0E0,0E0,0E0,0E0,0E0,0E0,0E0,0E0,0E0,0E0,0E0,0E0,0E0,0E0,0E0,0E0,0E0,0E0,0E0,0E0,0E0,0E0,0E0,0E0,0E0,0E0,0E0,0E0,0E0,0E0],"parents":[2147483647,0,0,1,1,2,2,3,3,4,4,5,5,6,6,7,7,8,8,9,9,10,10,11,11,12,12,13,13,14,14,15,15,16,16,17,17,18,18,19,19,20,20,21,21,22,22,23,23,24,24,25,25,26,26,27,27,28,28,29,29,30,30,31,31,32,32,33,33,34,34,35,35,36,36,37,37,38,38,39,39,40,40,41,41,42,42,43,43,44,44,45,45,46,46,47,47,48,48,49,49,51,51,52,52,53,53,54,54,55,55,56,56,57,57,58,58,59,59,60,60,62,62],"right_children":[2,4,6,8,10,12,14,16,18,20,22,24,26,28,30,32,34,36,38,40,42,44,46,48,50,52,54,56,58,60,62,64,66,68,70,72,74,76,78,80,82,84,86,88,90,92,94,96,98,100,-1,102,104,106,108,110,112,114,116,118,120,-1,122,-1,-1,-1,-1,-1,-1,-1,-1,-1,-1,-1,-1,-1,-1,-1,-1,-1,-1,-1,-1,-1,-1,-1,-1,-1,-1,-1,-1,-1,-1,-1,-1,-1,-1,-1,-1,-1,-1,-1,-1,-1,-1,-1,-1,-1,-1,-1,-1,-1,-1,-1,-1,-1,-1,-1,-1,-1,-1,-1,-1],"split_conditions":[8.868665E0,1.5778518E1,1.7555305E1,3.2E0,1E-1,1.2991584E1,2.4389498E1,1.0383987E1,7.8E0,2.2104116E1,1.4450668E2,1.1E0,4.4999995E0,2.166882E2,2.9877E1,1.2282857E2,6.4665833E0,8.708249E0,8.101796E1,7.5645003E0,6.8874154E0,5.160333E0,7E-1,9.449572E0,1.7287498E1,2.6231169E1,2.1329086E1,3.7270065E1,1.2560333E1,1.8479414E2,4.0107815E1,1E-1,6.681167E0,1.2287555E1,8.808249E0,6.331166E0,8.808249E0,3.4520006E0,7.001999E0,9.7226135E1,1.7935081E1,5.962417E0,2.3224882E1,4.2349266E1,5.2E0,1.7287498E1,2.1114322E2,1.2560333E1,1.5379206E1,1.0889501E1,5.5207806E0,1.0587918E1,9.793058E0,6.1840603E1,9.3E0,2.34E1,4.2E0,5.8E0,2.0349918E1,1.9296135E1,1.9721298E1,3.7384644E-1,1.8440998E1,4.205893E0,7.7528775E-1,7.1810946E0,3.7451837E0,2.4942176E0,5.212722E0,1.5249028E0,6.573499E0,-8.3808136E-1,-3.0031621E0,3.0696518E0,1.9656946E-1,1.4837226E0,7.4254575E0,8.372902E-1,-3.3242595E0,1.4636713E0,5.2897696E0,-2.2004778E0,2.450327E0,-1.289736E0,3.824934E0,-7.7897817E-1,-3.7293797E0,-1.0120554E0,2.1295457E0,-3.6620877E0,-1.5565548E0,5.934877E0,9.089398E-1,5.1646495E-1,-2.07632E0,2.1064107E0,4.757767E0,1.3742776E0,1.4557272E-1,8.157781E-1,-1.1665105E0,5.0113076E-1,-6.111447E-1,-1.599528E0,6.387907E-1,-3.272165E0,-1.8807366E0,8.8659054E-1,-1.1758186E0,-1.7236822E0,-3.8258107E0,-3.457355E-1,-1.9596425E0,-7.0297927E-1,-3.4317772E0,-3.3300502E0,-2.2171915E0,-1.2495615E0,1.135541E0,-2.7555647E-1,-2.2405937E0,3.027815E0,1.291038E0],"split_indices":[0,2,2,1,1,0,0,2,1,2,3,1,1,3,0,3,0,0,3,0,0,0,1,2,2,0,0,3,0,3,3,1,0,2,0,0,0,0,0,3,2,0,2,3,1,2,3,0,2,0,0,2,2,3,1,2,1,1,0,2,2,0,2,0,0,0,0,0,0,0,0,0,0,0,0,0,0,0,0,0,0,0,0,0,0,0,0,0,0,0,0,0,0,0,0,0,0,0,0,0,0,0,0,0,0,0,0,0,0,0,0,0,0,0,0,0,0,0,0,0,0,0,0],"split_type":[0,0,0,0,0,0,0,0,0,0,0,0,0,0,0,0,0,0,0,0,0,0,0,0,0,0,0,0,0,0,0,0,0,0,0,0,0,0,0,0,0,0,0,0,0,0,0,0,0,0,0,0,0,0,0,0,0,0,0,0,0,0,0,0,0,0,0,0,0,0,0,0,0,0,0,0,0,0,0,0,0,0,0,0,0,0,0,0,0,0,0,0,0,0,0,0,0,0,0,0,0,0,0,0,0,0,0,0,0,0,0,0,0,0,0,0,0,0,0,0,0,0,0],"sum_hessian":[2.723E3,5.64E2,2.159E3,3.38E2,2.26E2,1.518E3,6.41E2,3.1E2,2.8E1,1.04E2,1.22E2,3.6E2,1.158E3,5.42E2,9.9E1,1.42E2,1.68E2,2.1E1,7E0,6.6E1,3.8E1,9.3E1,2.9E1,2.61E2,9.9E1,1.04E3,1.18E2,3.46E2,1.96E2,9.2E1,7E0,4.5E1,9.7E1,8E1,8.8E1,1.9E1,2E0,3E0,4E0,5E1,1.6E1,3.1E1,7E0,3.8E1,5.5E1,4E0,2.5E1,7E1,1.91E2,9.5E1,4E0,8.65E2,1.75E2,1E2,1.8E1,7.4E1,2.72E2,7.4E1,1.22E2,4.3E1,4.9E1,1E0,6E0,3.5E1,1E1,5.2E1,4.5E1,4.2E1,3.8E1,8.4E1,4E0,1E1,9E0,1E0,1E0,1E0,2E0,2E0,2E0,4.7E1,3E0,1E1,6E0,2.3E1,8E0,1E0,6E0,3.1E1,7E0,3.7E1,1.8E1,2E0,2E0,1.4E1,1.1E1,6.2E1,8E0,1.55E2,3.6E1,4.8E1,4.7E1,1.75E2,6.9E2,6E0,1.69E2,1.9E1,8.1E1,9E0,9E0,4.2E1,3.2E1,1.67E2,1.05E2,5.6E1,1.8E1,8.5E1,3.7E1,1.7E1,2.6E1,3.1E1,1.8E1,2E0,4E0],"tree_param":{"num_deleted":"0","num_feature":"4","num_nodes":"123","size_leaf_vector":"1"}},{"base_weights":[3.7781544E-2,2.930428E0,-1.7503912E0,7.6274147E0,-6.0482383E-2,-5.9951645E-1,-3.2319534E0,1.0615699E1,5.015374E0,7.6803696E-1,-2.535306E0,2.0917125E0,-1.4633194E0,-2.0641155E0,-4.9906154E0,2.4589453E1,9.523231E0,4.2228168E-1,6.3097634E0,2.282453E0,-7.686955E-1,-5.2554536E-1,-6.1577587E0,-7.017633E0,2.8944628E0,-3.20515E0,6.459299E-2,-3.3054006E0,2.0774724E0,-1.895482E0,-5.7795105E0,-4.75102E0,3.0355995E1,1.0985766E1,2.3279543E0,3.9932084E0,-2.3985279E0,1.0615819E0,7.7118E0,-5.1907134E0,2.7662199E0,5.7297907E0,-1.1696293E0,2.1887615E0,-4.132942E0,6.934129E0,-6.7599025E0,3.1353292E0,-9.117271E0,4.1346626E0,-6.5635926E-1,-1.7038038E0,-6.2330694E0,3.5036113E0,-4.254292E-1,-1.288256E0,-5.7887473E0,7.909904E0,-2.5840678E0,8.201646E0,-3.1461074E0,-6.8277316E0,-1.8064673E0,-3.48937E0,1.3514111E0,4.1184735E0,1.0462612E1,3.0807405E0,7.798697E0,3.7069821E0,2.4364452E-1,-9.0908015E-1,2.0449212E0,-5.0268188E0,2.0776913E-1,9.690159E-1,-9.570645E-1,2.4813209E0,-2.5114722E0,-2.0680425E0,2.7971914E0,1.5531231E0,8.646386E-2,2.2010489E0,-2.2742565E0,-5.572358E-1,8.246848E-1,-2.4222887E0,9.8057157E-1,9.916718E-1,-1.6770552E0,-4.3474677E-1,3.555105E0,-2.5259068E0,-3.8930792E-1,1.48279E0,-3.4298745E-1,-3.0059063E0,6.6284585E-1,1.888558E0,4.598224E-1,-3.1785116E0,9.35716E-2,4.3327656E-1,-1.0519434E0,-1.5321234E0,-2.692233E0,2.162196E0,7.0178556E-1,-8.476823E-1,1.3419563E-1,3.702353E-1,-1.0157795E0,-1.060779E0,-2.2648206E0,5.809318E0,-4.3584332E-2,-9.6667403E-1,3.056988E0,5.2305584E0,3.0635628E-1,-3.7352833E-1,-2.0953722E0,-2.3465297E0,-6.6367066E-1,-7.5891095E-1,1.1756642E0],"categories":[],"categories_nodes":[],"categories_segments":[],"categories_sizes":[],"default_left":[0,0,0,0,0,0,0,0,0,0,0,0,0,0,0,0,0,0,0,0,0,0,0,0,0,0,0,0,0,0,0,0,0,0,0,0,0,0,0,0,0,0,0,0,0,0,0,0,0,0,0,0,0,0,0,0,0,0,0,0,0,0,0,0,0,0,0,0,0,0,0,0,0,0,0,0,0,0,0,0,0,0,0,0,0,0,0,0,0,0,0,0,0,0,0,0,0,0,0,0,0,0,0,0,0,0,0,0,0,0,0,0,0,0,0,0,0,0,0,0,0,0,0,0,0,0,0],"id":4,"left_children":[1,3,5,7,9,11,13,15,17,19,21,23,25,27,29,31,33,35,37,39,41,43,45,47,49,51,53,55,57,59,61,63,65,67,69,71,73,75,77,79,81,83,85,87,89,91,93,95,97,99,101,103,105,107,109,111,113,115,117,119,121,123,125,-1,-1,-1,-1,-1,-1,-1,-1,-1,-1,-1,-1,-1,-1,-1,-1,-1,-1,-1,-1,-1,-1,-1,-1,-1,-1,-1,-1,-1,-1,-1,-1,-1,-1,-1,-1,-1,-1,-1,-1,-1,-1,-1,-1,-1,-1,-1,-1,-1,-1,-1,-1,-1,-1,-1,-1,-1,-1,-1,-1,-1,-1,-1,-1],"loss_changes":[1.409516E4,1.4624706E4,2.869438E3,3.1079941E3,1.308077E3,2.209193E3,1.5013193E3,2.6358164E3,1.2934004E3,1.1141813E3,1.1616058E3,1.7095071E3,1.9137278E3,2.2894224E3,7.044741E2,2.3437324E3,1.8265352E3,5.0315018E2,1.2426973E3,8.8563855E2,6.26802E2,1.0273706E3,4.962163E2,4.3361908E2,9.40708E2,1.5168213E3,6.486055E2,1.7057129E3,2.8208154E3,7.960946E2,9.580244E2,2.4343932E2,3.4783984E2,1.3035039E3,4.6121082E2,4.5688565E2,1.2542573E3,3.514408E2,1.2745645E3,4.350001E2,1.3546333E3,3.5508945E2,6.11546E2,6.913208E2,5.062658E2,1.4081523E2,4.8770923E2,3.658194E1,1.8568152E2,8.78553E2,5.422078E2,1.2875972E3,2.9675732E2,1.9013159E2,7.0719495E2,1.0094916E3,5.801699E2,4.2471426E3,5.0565717E2,4.4630313E2,3.9263715E2,8.268799E2,2.1695248E2,0E0,0E0,0E0,0E0,0E0,0E0,0E0,0E0,0E0,0E0,0E0,0E0,0E0,0E0,0E0,0E0,0E0,0E0,0E0,0E0,0E0,0E0,0E0,0E0,0E0,0E0,0E0,0E0,0E0,0E0,0E0,0E0,0E0,0E0,0E0,0E0,0E0,0E0,0E0,0E0,0E0,0E0,0E0,0E0,0E0,0E0,0E0,0E0,0E0,0E0,0E0,0E0,0E0,0E0,0E0,0E0,0E0,0E0,0E0,0E0,0E0,0E0,0E0,0E0],"parents":[2147483647,0,0,1,1,2,2,3,3,4,4,5,5,6,6,7,7,8,8,9,9,10,10,11,11,12,12,13,13,14,14,15,15,16,16,17,17,18,18,19,19,20,20,21,21,22,22,23,23,24,24,25,25,26,26,27,27,28,28,29,29,30,30,31,31,32,32,33,33,34,34,35,35,36,36,37,37,38,38,39,39,40,40,41,41,42,42,43,43,44,44,45,45,46,46,47,47,48,48,49,49,50,50,51,51,52,52,53,53,54,54,55,55,56,56,57,57,58,58,59,59,60,60,61,61,62,62],"right_children":[2,4,6,8,10,12,14,16,18,20,22,24,26,28,30,32,34,36,38,40,42,44,46,48,50,52,54,56,58,60,62,64,66,68,70,72,74,76,78,80,82,84,86,88,90,92,94,96,98,100,102,104,106,108,110,112,114,116,118,120,122,124,126,-1,-1,-1,-1,-1,-1,-1,-1,-1,-1,-1,-1,-1,-1,-1,-1,-1,-1,-1,-1,-1,-1,-1,-1,-1,-1,-1,-1,-1,-1,-1,-1,-1,-1,-1,-1,-1,-1,-1,-1,-1,-1,-1,-1,-1,-1,-1,-1,-1,-1,-1,-1,-1,-1,-1,-1,-1,-1,-1,-1,-1,-1,-1,-1],"split_conditions":[1.337825E1,1.0976998E1,1.811841E1,7.3665814E0,8.000001E-1,1.17561655E1,1.8710449E2,7.145796E0,1.2057902E2,1.8324917E1,2.0115744E2,1.3627795E1,2.1687418E1,1.4282452E2,1.0549918E1,1.2282857E2,5E-1,7.167886E1,8.404285E0,4.1813274E1,7.4128532E0,5.5E0,1.1935333E1,3.5696404E1,2.1E0,2.2337883E2,2.3210335E1,2E-1,4.2E0,2E-1,2.3695753E1,5.160333E0,6.439876E0,3E-1,3.7249167E0,2.5365782E1,8.295577E1,1E-1,9.700001E0,1.30447235E1,1.6401161E2,2.0729953E2,2.6762413E1,4.2349266E1,1.1712417E1,1.1195748E1,2.1547836E1,8.593666E0,4.6E0,1.5990646E1,2.9E0,1.4662417E1,1.6575644E1,7.539081E1,2.4724916E1,2.1566973E1,2.2206486E1,1.6143667E1,1.8479414E2,1.0433249E1,6.5E0,2.7783045E1,2.9877E1,-3.48937E0,1.3514111E0,4.1184735E0,1.0462612E1,3.0807405E0,7.798697E0,3.7069821E0,2.4364452E-1,-9.0908015E-1,2.0449212E0,-5.0268188E0,2.0776913E-1,9.690159E-1,-9.570645E-1,2.4813209E0,-2.5114722E0,-2.0680425E0,2.7971914E0,1.5531231E0,8.646386E-2,2.2010489E0,-2.2742565E0,-5.572358E-1,8.246848E-1,-2.4222887E0,9.8057157E-1,9.916718E-1,-1.6770552E0,-4.3474677E-1,3.555105E0,-2.5259068E0,-3.8930792E-1,1.48279E0,-3.4298745E-1,-3.0059063E0,6.6284585E-1,1.888558E0,4.598224E-1,-3.1785116E0,9.35716E-2,4.3327656E-1,-1.0519434E0,-1.5321234E0,-2.692233E0,2.162196E0,7.0178556E-1,-8.476823E-1,1.3419563E-1,3.702353E-1,-1.0157795E0,-1.060779E0,-2.2648206E0,5.809318E0,-4.3584332E-2,-9.6667403E-1,3.056988E0,5.2305584E0,3.0635628E-1,-3.7352833E-1,-2.0953722E0,-2.3465297E0,-6.6367066E-1,-7.5891095E-1,1.1756642E0],"split_indices":[2,0,2,0,1,0,3,2,3,0,3,2,0,3,0,3,1,3,2,3,2,1,0,3,1,3,0,1,1,1,0,0,2,1,0,3,3,1,1,2,3,3,0,3,0,0,0,0,1,2,1,0,2,3,0,2,2,0,3,0,1,2,0,0,0,0,0,0,0,0,0,0,0,0,0,0,0,0,0,0,0,0,0,0,0,0,0,0,0,0,0,0,0,0,0,0,0,0,0,0,0,0,0,0,0,0,0,0,0,0,0,0,0,0,0,0,0,0,0,0,0,0,0,0,0,0,0],"split_type":[0,0,0,0,0,0,0,0,0,0,0,0,0,0,0,0,0,0,0,0,0,0,0,0,0,0,0,0,0,0,0,0,0,0,0,0,0,0,0,0,0,0,0,0,0,0,0,0,0,0,0,0,0,0,0,0,0,0,0,0,0,0,0,0,0,0,0,0,0,0,0,0,0,0,0,0,0,0,0,0,0,0,0,0,0,0,0,0,0,0,0,0,0,0,0,0,0,0,0,0,0,0,0,0,0,0,0,0,0,0,0,0,0,0,0,0,0,0,0,0,0,0,0,0,0,0,0],"sum_hessian":[2.723E3,1.04E3,1.683E3,4.04E2,6.36E2,9.48E2,7.35E2,1.87E2,2.17E2,4.77E2,1.59E2,2.3E2,7.18E2,4.43E2,2.92E2,1.2E1,1.75E2,4.8E1,1.69E2,2.4E2,2.37E2,1.03E2,5.6E1,1.8E1,2.12E2,3.35E2,3.83E2,3.41E2,1.02E2,6E1,2.32E2,2E0,1E1,1.45E2,3E1,2.1E1,2.7E1,3.6E1,1.33E2,1.4E1,2.26E2,1.3E1,2.24E2,5.9E1,4.4E1,2E0,5.4E1,3E0,1.5E1,1.57E2,5.5E1,2.25E2,1.1E2,4.7E1,3.36E2,1.89E2,1.52E2,4.5E1,5.7E1,6E0,5.4E1,1.83E2,4.9E1,1E0,1E0,3E0,7E0,1.4E2,5E0,3E0,2.7E1,6E0,1.5E1,4E0,2.3E1,2.4E1,1.2E1,1.29E2,4E0,1.3E1,1E0,1.14E2,1.12E2,1.2E1,1E0,1.91E2,3.3E1,5E0,5.4E1,7E0,3.7E1,1E0,1E0,4.1E1,1.3E1,2E0,1E0,1.4E1,1E0,8.5E1,7.2E1,4E0,5.1E1,8.2E1,1.43E2,8E1,3E1,1E1,3.7E1,8.9E1,2.47E2,8.6E1,1.03E2,6.8E1,8.4E1,1.8E1,2.7E1,5.5E1,2E0,2E0,4E0,3.7E1,1.7E1,1.5E2,3.3E1,4.4E1,5E0],"tree_param":{"num_deleted":"0","num_feature":"4","num_nodes":"127","size_leaf_vector":"1"}},{"base_weights":[3.5235405E-2,3.7683892E0,-7.368718E-1,8.680359E0,1.5736607E0,1.8098063E0,-1.2417635E0,9.997945E0,1.1429024E-2,2.9695966E0,-1.0643601E-1,4.4781613E0,-3.645579E-1,-5.667184E-1,-2.7748663E0,7.4045334E0,1.3381361E1,4.159114E0,-1.0359688E1,-7.436618E-1,4.357039E0,-8.5169834E-1,4.7058277E0,4.852115E0,-6.4272842E0,1.5590116E0,-2.0749693E0,-2.3276867E-1,-3.5961642E0,-3.0651262E0,1.0874323E0,1.3175871E1,4.8204184E0,-1.1505041E1,1.5104647E1,-8.236538E-1,1.1770541E1,-2.2052104E0,-4.1656876E0,2.3563147E0,-3.5765762E0,7.098118E0,2.0178745E0,1.3713049E0,-2.686987E0,1.0000637E1,2.2741823E0,2.908461E0,7.737802E0,-1.11251545E1,2.55931E0,2.924482E0,-3.0207613E0,-2.71962E0,9.552245E0,1.3799636E0,-9.1644216E-1,2.7760077E0,-3.9813774E0,-2.7134101E0,-6.091708E0,2.6609693E0,-5.378872E-1,4.909072E0,-1.5779034E0,1.3304838E-2,2.1416872E0,-4.6698976E0,1.0182152E-1,3.1984458E0,6.370894E0,-7.755358E-1,1.2444416E0,4.909263E0,5.166405E-1,-1.8042722E0,8.1192744E-1,1.3109655E0,-1.8507688E0,2.404784E0,-1.8146007E0,3.5146403E0,1.7009865E0,-2.234353E-4,2.3884885E0,-2.3326264E-3,2.4388728E0,-3.9373285E-1,-2.319337E0,3.4645073E0,3.393053E-1,-2.9180147E-2,2.1109605E0,-1.0136515E0,1.2759393E0,3.3830988E0,8.866375E-1,-4.6230593E0,-9.39518E-1,-1.2781935E0,1.3014798E0,2.3623383E0,-1.3300128E0,-2.3955283E0,-4.6152866E-1,5.707432E0,1.1558357E0,-2.7849655E0,4.869678E-1,-8.0858E-1,4.9709875E-2,-1.5978565E0,3.6629252E0,-9.7388375E-1,-2.0635188E0,-5.112253E-1,-1.2687112E0,-2.4429994E0,5.8156514E-1,-1.1444848E0,1.0630295E0,-1.3846707E0,4.2026705E-1],"categories":[],"categories_nodes":[],"categories_segments":[],"categories_sizes":[],"default_left":[0,0,0,0,0,0,0,0,0,0,0,0,0,0,0,0,0,0,0,0,0,0,0,0,0,0,0,0,0,0,0,0,0,0,0,0,0,0,0,0,0,0,0,0,0,0,0,0,0,0,0,0,0,0,0,0,0,0,0,0,0,0,0,0,0,0,0,0,0,0,0,0,0,0,0,0,0,0,0,0,0,0,0,0,0,0,0,0,0,0,0,0,0,0,0,0,0,0,0,0,0,0,0,0,0,0,0,0,0,0,0,0,0,0,0,0,0,0,0,0,0,0,0],"id":5,"left_children":[1,3,5,7,9,11,13,15,17,19,21,23,25,27,29,31,33,35,37,39,41,43,45,47,49,51,53,55,57,59,61,63,65,67,69,71,73,75,-1,77,79,81,83,85,87,89,91,93,95,97,-1,99,101,103,105,107,109,111,113,115,117,119,121,-1,-1,-1,-1,-1,-1,-1,-1,-1,-1,-1,-1,-1,-1,-1,-1,-1,-1,-1,-1,-1,-1,-1,-1,-1,-1,-1,-1,-1,-1,-1,-1,-1,-1,-1,-1,-1,-1,-1,-1,-1,-1,-1,-1,-1,-1,-1,-1,-1,-1,-1,-1,-1,-1,-1,-1,-1,-1,-1,-1],"loss_changes":[7.854421E3,5.0208047E3,2.9055762E3,1.6446631E3,7.6019574E2,2.1715713E3,1.9492393E3,9.977412E2,9.034096E2,9.151322E2,5.3479504E2,7.1631274E2,6.842846E2,1.3244672E3,6.490698E2,1.0251938E3,2.4467578E3,5.7858435E2,1.4189227E2,4.38744E2,8.1280347E2,5.299857E2,2.347587E2,8.917256E2,5.165424E2,6.216815E2,8.504824E2,1.3034144E3,3.3015613E2,5.540415E2,1.0628883E2,1.3789414E3,5.755051E2,1.9769794E2,1.1357881E3,9.8299835E1,2.4877301E2,7.240278E1,0E0,4.389616E2,7.9358826E2,3.2263916E2,8.5187634E2,5.4995496E2,4.8212384E2,6.930475E1,1.700896E2,8.513504E2,1.0668379E3,1.2300043E2,0E0,7.9050824E2,3.888977E2,6.407665E2,2.5063141E2,9.281393E2,1.5981466E3,6.7650366E2,2.3961072E2,7.301389E2,9.219144E2,1.3352786E2,1.7248596E2,0E0,0E0,0E0,0E0,0E0,0E0,0E0,0E0,0E0,0E0,0E0,0E0,0E0,0E0,0E0,0E0,0E0,0E0,0E0,0E0,0E0,0E0,0E0,0E0,0E0,0E0,0E0,0E0,0E0,0E0,0E0,0E0,0E0,0E0,0E0,0E0,0E0,0E0,0E0,0E0,0E0,0E0,0E0,0E0,0E0,0E0,0E0,0E0,0E0,0E0,0E0,0E0,0E0,0E0,0E0,0E0,0E0,0E0,0E0,0E0],"parents":[2147483647,0,0,1,1,2,2,3,3,4,4,5,5,6,6,7,7,8,8,9,9,10,10,11,11,12,12,13,13,14,14,15,15,16,16,17,17,18,18,19,19,20,20,21,21,22,22,23,23,24,24,25,25,26,26,27,27,28,28,29,29,30,30,31,31,32,32,33,33,34,34,35,35,36,36,37,37,39,39,40,40,41,41,42,42,43,43,44,44,45,45,46,46,47,47,48,48,49,49,51,51,52,52,53,53,54,54,55,55,56,56,57,57,58,58,59,59,60,60,61,61,62,62],"right_children":[2,4,6,8,10,12,14,16,18,20,22,24,26,28,30,32,34,36,38,40,42,44,46,48,50,52,54,56,58,60,62,64,66,68,70,72,74,76,-1,78,80,82,84,86,88,90,92,94,96,98,-1,100,102,104,106,108,110,112,114,116,118,120,122,-1,-1,-1,-1,-1,-1,-1,-1,-1,-1,-1,-1,-1,-1,-1,-1,-1,-1,-1,-1,-1,-1,-1,-1,-1,-1,-1,-1,-1,-1,-1,-1,-1,-1,-1,-1,-1,-1,-1,-1,-1,-1,-1,-1,-1,-1,-1,-1,-1,-1,-1,-1,-1,-1,-1,-1,-1,-1,-1,-1],"split_conditions":[1.0383987E1,8.708249E0,8.416583E0,3E-1,1.6243301E2,1.5778518E1,1.825026E1,9.028754E0,7.5645003E0,8.101796E1,3.0327475E2,2.3732974E2,1E-1,5.2E0,2.6610336E1,7.4128532E0,3.1478338E0,9.686609E0,7.928177E0,8.654986E0,1.3073866E2,1.5466584E1,3.1873145E2,1.2708263E2,8.081166E0,6.8874154E0,2.3935733E2,1.4847835E1,9.104082E0,2.524349E2,1.9672095E2,1.8576898E2,1.2282857E2,1E-1,1.5417505E2,7.181166E0,1.2000002E0,7.629083E0,-4.1656876E0,2E-1,2.6448914E1,7.5942082E0,1.5055313E2,1.4199917E1,2.6123685E2,2.0568666E1,2.1043669E1,1.1200571E1,7.181166E0,1.3493999E1,2.55931E0,2.5207498E0,1.6263872E1,1.7238699E1,4E-1,8.504083E0,2.1547836E1,8.868665E0,2.1931622E2,2.3762726E1,2.3950148E1,1.8532135E1,2.3053253E2,4.909072E0,-1.5779034E0,1.3304838E-2,2.1416872E0,-4.6698976E0,1.0182152E-1,3.1984458E0,6.370894E0,-7.755358E-1,1.2444416E0,4.909263E0,5.166405E-1,-1.8042722E0,8.1192744E-1,1.3109655E0,-1.8507688E0,2.404784E0,-1.8146007E0,3.5146403E0,1.7009865E0,-2.234353E-4,2.3884885E0,-2.3326264E-3,2.4388728E0,-3.9373285E-1,-2.319337E0,3.4645073E0,3.393053E-1,-2.9180147E-2,2.1109605E0,-1.0136515E0,1.2759393E0,3.3830988E0,8.866375E-1,-4.6230593E0,-9.39518E-1,-1.2781935E0,1.3014798E0,2.3623383E0,-1.3300128E0,-2.3955283E0,-4.6152866E-1,5.707432E0,1.1558357E0,-2.7849655E0,4.869678E-1,-8.0858E-1,4.9709875E-2,-1.5978565E0,3.6629252E0,-9.7388375E-1,-2.0635188E0,-5.112253E-1,-1.2687112E0,-2.4429994E0,5.8156514E-1,-1.1444848E0,1.0630295E0,-1.3846707E0,4.2026705E-1],"split_indices":[2,0,0,1,3,2,2,2,0,3,3,3,1,1,0,2,0,2,2,2,3,0,3,3,0,0,3,0,0,3,3,3,3,1,3,0,1,0,0,1,3,2,3,0,3,0,0,2,0,2,0,0,2,2,1,0,0,0,3,2,2,2,3,0,0,0,0,0,0,0,0,0,0,0,0,0,0,0,0,0,0,0,0,0,0,0,0,0,0,0,0,0,0,0,0,0,0,0,0,0,0,0,0,0,0,0,0,0,0,0,0,0,0,0,0,0,0,0,0,0,0,0,0],"split_type":[0,0,0,0,0,0,0,0,0,0,0,0,0,0,0,0,0,0,0,0,0,0,0,0,0,0,0,0,0,0,0,0,0,0,0,0,0,0,0,0,0,0,0,0,0,0,0,0,0,0,0,0,0,0,0,0,0,0,0,0,0,0,0,0,0,0,0,0,0,0,0,0,0,0,0,0,0,0,0,0,0,0,0,0,0,0,0,0,0,0,0,0,0,0,0,0,0,0,0,0,0,0,0,0,0,0,0,0,0,0,0,0,0,0,0,0,0,0,0,0,0,0,0],"sum_hessian":[2.723E3,4.66E2,2.257E3,1.43E2,3.23E2,3.73E2,1.884E3,1.24E2,1.9E1,1.76E2,1.47E2,1.67E2,2.06E2,1.309E3,5.75E2,7.2E1,5.2E1,1.4E1,5E0,4.8E1,1.28E2,1.28E2,1.9E1,1.62E2,5E0,9.7E1,1.09E2,1.18E3,1.29E2,5.35E2,4E1,2.1E1,5.1E1,3E0,4.9E1,9E0,5E0,2E0,3E0,2.3E1,2.5E1,5.8E1,7E1,5.8E1,7E1,5E0,1.4E1,9.8E1,6.4E1,4E0,1E0,7.5E1,2.2E1,1.04E2,5E0,3.51E2,8.29E2,7E0,1.22E2,4.81E2,5.4E1,2E1,2E1,1.8E1,3E0,1.7E1,3.4E1,2E0,1E0,3E1,1.9E1,7E0,2E0,3E0,2E0,1E0,1E0,1.9E1,4E0,4E0,2.1E1,1.2E1,4.6E1,5.3E1,1.7E1,4.9E1,9E0,5.6E1,1.4E1,4E0,1E0,1E1,4E0,1.7E1,8.1E1,3.6E1,2.8E1,2E0,2E0,1.2E1,6.3E1,2E0,2E1,1.8E1,8.6E1,1E0,4E0,7E0,3.44E2,3.13E2,5.16E2,4E0,3E0,9.9E1,2.3E1,2.9E2,1.91E2,4.3E1,1.1E1,2E0,1.8E1,6E0,1.4E1],"tree_param":{"num_deleted":"0","num_feature":"4","num_nodes":"123","size_leaf_vector":"1"}},{"base_weights":[3.2873817E-2,2.6903083E0,-5.167518E-1,6.1541963E0,1.142499E0,-1.6418041E-1,-2.4126046E0,7.08246E0,4.4839285E-2,2.6222818E0,2.2391406E-1,3.883758E0,-3.7643328E-1,-2.0856392E0,-6.457179E0,6.239222E0,1.5254268E1,-1.7043049E0,4.991787E0,5.8818645E0,1.2743349E0,9.791147E-1,-2.138731E0,4.979047E0,-7.1355624E0,-2.9983623E0,-1.0474976E-1,-8.886476E-1,-3.1085436E0,-7.493236E0,2.9166355E0,7.590989E0,-4.0550237E0,-1.0967159E0,2.9062874E1,1.1633519E0,-8.111453E0,-1.0368782E0,8.226515E0,2.9195337E0,-1.3473873E0,4.855792E-1,5.1746635E0,-9.01152E0,-1.152925E0,3.6647563E0,1.217849E1,-4.2063584E0,-1.3558813E0,-9.876698E0,-2.6423805E0,7.409062E-1,-1.2932197E0,-9.209383E0,-4.266303E-1,-4.926637E0,-1.7234098E0,-9.186532E0,3.6931992E0,1.8364199E0,5.7576046E0,-2.3599427E0,-6.3937575E-2,-2.929367E0,7.7692914E-1,4.7576604E0,1.1094177E1,2.3449662E0,-1.7906837E-1,-5.6232876E-1,-3.2284076E0,1.7248477E0,-2.6919441E0,2.1905251E-1,3.2441177E0,-1.4903185E0,1.2519763E0,-1.0710665E0,1.1480998E0,3.0247548E-1,-2.1354258E0,-4.4778444E-2,2.2824597E0,-2.304718E-1,-3.8823304E0,3.624369E-1,-1.739448E0,1.7373763E0,-1.0172669E0,5.4452186E0,-3.0217165E-1,2.9599944E-1,-1.2081947E0,-9.3963975E-1,-3.4808595E0,-5.937042E-1,-2.110129E0,3.3877006E-1,-6.810211E-1,-1.6663861E-1,-7.541869E-1,1.3788849E0,-3.55147E0,-2.2212505E-1,3.2693691E0,-1.6842619E0,-2.37526E-1,1.6144472E-1,-8.8954234E-1,-2.1034796E0,-3.4647107E0,2.0613575E0,1.0304146E-1],"categories":[],"categories_nodes":[],"categories_segments":[],"categories_sizes":[],"default_left":[0,0,0,0,0,0,0,0,0,0,0,0,0,0,0,0,0,0,0,0,0,0,0,0,0,0,0,0,0,0,0,0,0,0,0,0,0,0,0,0,0,0,0,0,0,0,0,0,0,0,0,0,0,0,0,0,0,0,0,0,0,0,0,0,0,0,0,0,0,0,0,0,0,0,0,0,0,0,0,0,0,0,0,0,0,0,0,0,0,0,0,0,0,0,0,0,0,0,0,0,0,0,0,0,0,0,0,0,0,0,0,0,0],"id":6,"left_children":[1,3,5,7,9,11,13,15,17,19,21,23,25,27,29,31,33,35,-1,37,39,41,43,45,47,49,51,53,55,57,-1,59,61,63,65,67,69,71,73,75,77,79,81,83,85,87,89,-1,91,93,95,97,99,101,103,105,107,109,111,-1,-1,-1,-1,-1,-1,-1,-1,-1,-1,-1,-1,-1,-1,-1,-1,-1,-1,-1,-1,-1,-1,-1,-1,-1,-1,-1,-1,-1,-1,-1,-1,-1,-1,-1,-1,-1,-1,-1,-1,-1,-1,-1,-1,-1,-1,-1,-1,-1,-1,-1,-1,-1,-1],"loss_changes":[3.9800486E3,2.4967607E3,1.508904E3,8.1631934E2,4.3982794E2,1.6382126E3,4.546748E2,7.6617285E2,6.088802E2,5.373289E2,3.6073254E2,1.1821156E3,1.2897246E3,4.0006787E2,5.0867957E2,1.6310547E3,2.515501E3,3.5853302E2,0E0,5.925231E2,3.8781342E2,3.1429712E2,3.2159702E2,7.7857666E2,3.391597E2,3.9015747E2,1.6512283E3,5.8425256E2,4.372489E2,5.0747607E2,0E0,1.6214902E3,2.0332843E2,2.170108E2,4.0803223E1,1.6862349E2,7.8993744E1,5.901756E2,5.157584E2,5.645946E2,4.1622638E2,5.556199E2,2.0843097E2,1.8441394E2,4.8958026E2,1.1449235E3,1.0420104E3,0E0,4.152136E1,5.6796204E1,4.6091492E2,1.1250378E3,6.1371875E2,3.4475604E2,5.268777E2,2.1162427E2,2.8803705E2,3.2065063E1,4.022157E1,0E0,0E0,0E0,0E0,0E0,0E0,0E0,0E0,0E0,0E0,0E0,0E0,0E0,0E0,0E0,0E0,0E0,0E0,0E0,0E0,0E0,0E0,0E0,0E0,0E0,0E0,0E0,0E0,0E0,0E0,0E0,0E0,0E0,0E0,0E0,0E0,0E0,0E0,0E0,0E0,0E0,0E0,0E0,0E0,0E0,0E0,0E0,0E0,0E0,0E0,0E0,0E0,0E0,0E0],"parents":[2147483647,0,0,1,1,2,2,3,3,4,4,5,5,6,6,7,7,8,8,9,9,10,10,11,11,12,12,13,13,14,14,15,15,16,16,17,17,19,19,20,20,21,21,22,22,23,23,24,24,25,25,26,26,27,27,28,28,29,29,31,31,32,32,33,33,34,34,35,35,36,36,37,37,38,38,39,39,40,40,41,41,42,42,43,43,44,44,45,45,46,46,48,48,49,49,50,50,51,51,52,52,53,53,54,54,55,55,56,56,57,57,58,58],"right_children":[2,4,6,8,10,12,14,16,18,20,22,24,26,28,30,32,34,36,-1,38,40,42,44,46,48,50,52,54,56,58,-1,60,62,64,66,68,70,72,74,76,78,80,82,84,86,88,90,-1,92,94,96,98,100,102,104,106,108,110,112,-1,-1,-1,-1,-1,-1,-1,-1,-1,-1,-1,-1,-1,-1,-1,-1,-1,-1,-1,-1,-1,-1,-1,-1,-1,-1,-1,-1,-1,-1,-1,-1,-1,-1,-1,-1,-1,-1,-1,-1,-1,-1,-1,-1,-1,-1,-1,-1,-1,-1,-1,-1,-1,-1],"split_conditions":[1.0383987E1,8.708249E0,4.4999995E0,3E-1,1.2991584E1,4.5749164E0,2.81E1,8.258249E0,1.0086427E1,1.3073866E2,8.000001E-1,2.8312117E1,3.5696404E1,1.1935333E1,3.1991425E1,9.826088E0,9.227524E0,7.5645003E0,4.991787E0,8.479606E1,1.0835334E1,2.8493146E2,1.4318667E1,1.1045512E2,1E-1,5.0186667E0,2.2337883E2,4.7E0,1.60395E1,1.9637419E1,2.9166355E0,9.585739E0,1.081891E2,8.416583E0,9.957108E0,3.835333E0,7.928177E0,6.515599E1,9.949916E0,9.104082E0,1.8338843E2,2.6123685E2,7.9932976E0,8.905908E0,2.0462349E2,4.9455025E1,1.2843735E2,-4.2063584E0,3.1991425E1,1.9601294E1,2.5812277E1,2.2206486E1,1.6575644E1,1.3324863E1,1.1862418E1,1.55E1,1.5226764E1,3.9300003E1,1.9947836E1,1.8364199E0,5.7576046E0,-2.3599427E0,-6.3937575E-2,-2.929367E0,7.7692914E-1,4.7576604E0,1.1094177E1,2.3449662E0,-1.7906837E-1,-5.6232876E-1,-3.2284076E0,1.7248477E0,-2.6919441E0,2.1905251E-1,3.2441177E0,-1.4903185E0,1.2519763E0,-1.0710665E0,1.1480998E0,3.0247548E-1,-2.1354258E0,-4.4778444E-2,2.2824597E0,-2.304718E-1,-3.8823304E0,3.624369E-1,-1.739448E0,1.7373763E0,-1.0172669E0,5.4452186E0,-3.0217165E-1,2.9599944E-1,-1.2081947E0,-9.3963975E-1,-3.4808595E0,-5.937042E-1,-2.110129E0,3.3877006E-1,-6.810211E-1,-1.6663861E-1,-7.541869E-1,1.3788849E0,-3.55147E0,-2.2212505E-1,3.2693691E0,-1.6842619E0,-2.37526E-1,1.6144472E-1,-8.8954234E-1,-2.1034796E0,-3.4647107E0,2.0613575E0,1.0304146E-1],"split_indices":[2,0,1,1,0,0,1,0,2,3,1,2,3,0,2,2,2,0,0,3,0,3,0,3,1,0,3,1,0,0,0,2,3,0,2,0,2,3,0,0,3,3,2,2,3,3,3,0,2,3,2,2,2,2,0,1,2,1,0,0,0,0,0,0,0,0,0,0,0,0,0,0,0,0,0,0,0,0,0,0,0,0,0,0,0,0,0,0,0,0,0,0,0,0,0,0,0,0,0,0,0,0,0,0,0,0,0,0,0,0,0,0,0],"split_type":[0,0,0,0,0,0,0,0,0,0,0,0,0,0,0,0,0,0,0,0,0,0,0,0,0,0,0,0,0,0,0,0,0,0,0,0,0,0,0,0,0,0,0,0,0,0,0,0,0,0,0,0,0,0,0,0,0,0,0,0,0,0,0,0,0,0,0,0,0,0,0,0,0,0,0,0,0,0,0,0,0,0,0,0,0,0,0,0,0,0,0,0,0,0,0,0,0,0,0,0,0,0,0,0,0,0,0,0,0,0,0,0,0],"sum_hessian":[2.723E3,4.66E2,2.257E3,1.43E2,3.23E2,1.904E3,3.53E2,1.24E2,1.9E1,1.23E2,2E2,9.4E1,1.81E3,3.28E2,2.5E1,1.14E2,1E1,1.8E1,1E0,3.5E1,8.8E1,1.52E2,4.8E1,8.6E1,8E0,1.69E2,1.641E3,1.52E2,1.76E2,2.4E1,1E0,1.01E2,1.3E1,5E0,5E0,1.3E1,5E0,9E0,2.6E1,5.4E1,3.4E1,1.37E2,1.5E1,5E0,4.3E1,7.4E1,1.2E1,3E0,5E0,7E0,1.62E2,9.59E2,6.82E2,7E0,1.45E2,7.5E1,1.01E2,2.1E1,3E0,9.1E1,1E1,6E0,7E0,1E0,4E0,3E0,2E0,2E0,1.1E1,2E0,3E0,5E0,4E0,7E0,1.9E1,7E0,4.7E1,2.4E1,1E1,1.29E2,8E0,5E0,1E1,2E0,3E0,2.9E1,1.4E1,5.7E1,1.7E1,8E0,4E0,3E0,2E0,2E0,5E0,1.42E2,2E1,8.5E2,1.09E2,4.26E2,2.56E2,1E0,6E0,1.42E2,3E0,6.4E1,1.1E1,3.6E1,6.5E1,1.3E1,8E0,1E0,2E0],"tree_param":{"num_deleted":"0","num_feature":"4","num_nodes":"113","size_leaf_vector":"1"}},{"base_weights":[2.6528507E-2,2.5051343E0,-3.1618038E-1,-4.6671388E-1,5.189312E0,4.727064E-1,-9.3915284E-1,6.6761667E-1,-5.757092E0,6.3389707E0,1.047187E0,1.5717221E0,-2.6592612E-1,-1.1363965E0,1.4368888E0,1.4800884E0,-6.228046E0,4.6484527E-1,-6.81345E0,3.8415732E0,9.088518E0,3.0600593E0,-9.260935E-1,-4.7137036E0,1.8451681E0,-5.3745356E0,-9.908881E-2,-6.435293E-1,-1.8004501E0,1.972224E0,-3.2197533E0,4.153197E-1,1.4329473E1,-1.2456678E1,5.130768E-4,4.0183735E0,-2.0623903E0,-8.650873E0,-1.1152976E0,5.577134E0,-7.650173E0,5.5057898E0,1.669523E1,-3.8404636E0,5.2517796E0,-6.747287E0,4.4785814E0,2.293772E0,-1.0155876E0,-6.980337E0,2.7937536E0,3.3832905E-1,-1.3423765E0,-1.768581E0,1.2227637E0,-8.157238E0,-1.6488347E0,-5.5906425E0,2.1998765E0,-1.3743936E0,1.5593749E0,4.594323E-1,-2.6481872E0,2.8106408E0,8.102226E0,-4.827557E0,-6.737469E-1,3.0863374E-1,-1.0796025E0,1.4782265E0,1.936844E-1,-2.9948702E0,-1.2969006E0,1.4197593E0,-2.0052905E0,-4.6526184E0,1.9522393E0,-4.248464E-1,-4.994149E0,2.8751445E0,-1.7372313E-1,-1.3205572E0,6.2031536E0,2.6628244E-1,-1.7893412E0,2.3206651E0,2.1724354E-1,1.0120711E0,-3.3736327E0,6.257483E-1,4.1916738E0,-4.0812516E0,-1.3903136E-2,-2.3758497E0,1.2069386E0,1.6278025E0,3.2299805E-2,9.588577E-1,7.38034E-3,-9.0073544E-1,7.781048E-1,-3.7221935E-1,-1.8292483E0,3.298863E0,1.0419116E-1,-1.323979E0,-4.3625617E0,-6.025883E-1,8.266279E-2,-4.8385164E-1,-2.0319376E0,1.8395138E-1,8.374832E-1],"categories":[],"categories_nodes":[],"categories_segments":[],"categories_sizes":[],"default_left":[0,0,0,0,0,0,0,0,0,0,0,0,0,0,0,0,0,0,0,0,0,0,0,0,0,0,0,0,0,0,0,0,0,0,0,0,0,0,0,0,0,0,0,0,0,0,0,0,0,0,0,0,0,0,0,0,0,0,0,0,0,0,0,0,0,0,0,0,0,0,0,0,0,0,0,0,0,0,0,0,0,0,0,0,0,0,0,0,0,0,0,0,0,0,0,0,0,0,0,0,0,0,0,0,0,0,0,0,0,0,0,0,0],"id":7,"left_children":[1,3,5,7,9,11,13,15,17,19,21,23,25,27,29,31,33,35,37,39,41,-1,43,45,47,49,51,53,55,57,59,61,63,65,67,69,-1,71,73,75,77,79,81,83,85,87,-1,89,91,93,95,97,99,101,103,105,107,109,111,-1,-1,-1,-1,-1,-1,-1,-1,-1,-1,-1,-1,-1,-1,-1,-1,-1,-1,-1,-1,-1,-1,-1,-1,-1,-1,-1,-1,-1,-1,-1,-1,-1,-1,-1,-1,-1,-1,-1,-1,-1,-1,-1,-1,-1,-1,-1,-1,-1,-1,-1,-1,-1,-1],"loss_changes":[2.3146675E3,2.6427986E3,1.1769867E3,9.5200745E2,8.219551E2,8.584575E2,6.286987E2,7.4314954E2,1.8719983E2,8.98959E2,7.1384314E2,7.391554E2,5.389776E2,4.0337207E2,2.631151E2,1.6084801E3,5.43142E2,1.5803008E2,2.4162976E2,1.4986235E3,1.6522573E3,0E0,6.1432135E2,8.1972437E2,5.259346E2,2.818343E2,3.3436963E2,1.4950323E3,4.9350195E2,1.724173E2,1.4988593E2,1.1482645E3,3.1299292E2,2.2368835E2,3.3309624E1,9.082779E0,0E0,6.0611084E1,2.5959973E2,1.3563982E3,5.37299E2,1.1221904E3,1.7711685E3,2.362706E2,1.18099976E2,8.1186536E2,0E0,8.2810693E2,6.8264825E2,2.0753986E2,2.7697666E1,4.0787045E2,1.0532517E3,1.00698193E3,2.2892585E3,2.2266986E2,3.5712756E2,3.187088E0,8.372891E1,0E0,0E0,0E0,0E0,0E0,0E0,0E0,0E0,0E0,0E0,0E0,0E0,0E0,0E0,0E0,0E0,0E0,0E0,0E0,0E0,0E0,0E0,0E0,0E0,0E0,0E0,0E0,0E0,0E0,0E0,0E0,0E0,0E0,0E0,0E0,0E0,0E0,0E0,0E0,0E0,0E0,0E0,0E0,0E0,0E0,0E0,0E0,0E0,0E0,0E0,0E0,0E0,0E0,0E0],"parents":[2147483647,0,0,1,1,2,2,3,3,4,4,5,5,6,6,7,7,8,8,9,9,10,10,11,11,12,12,13,13,14,14,15,15,16,16,17,17,18,18,19,19,20,20,22,22,23,23,24,24,25,25,26,26,27,27,28,28,29,29,30,30,31,31,32,32,33,33,34,34,35,35,37,37,38,38,39,39,40,40,41,41,42,42,43,43,44,44,45,45,47,47,48,48,49,49,50,50,51,51,52,52,53,53,54,54,55,55,56,56,57,57,58,58],"right_children":[2,4,6,8,10,12,14,16,18,20,22,24,26,28,30,32,34,36,38,40,42,-1,44,46,48,50,52,54,56,58,60,62,64,66,68,70,-1,72,74,76,78,80,82,84,86,88,-1,90,92,94,96,98,100,102,104,106,108,110,112,-1,-1,-1,-1,-1,-1,-1,-1,-1,-1,-1,-1,-1,-1,-1,-1,-1,-1,-1,-1,-1,-1,-1,-1,-1,-1,-1,-1,-1,-1,-1,-1,-1,-1,-1,-1,-1,-1,-1,-1,-1,-1,-1,-1,-1,-1,-1,-1,-1,-1,-1,-1,-1,-1],"split_conditions":[6.681167E0,6.0807194E1,1.420062E1,2E0,1.2000002E0,1.365825E1,2.738742E1,5.1401493E1,2.5207498E0,1.3838745E2,9.4539215E1,7.001999E0,2.0323246E1,2.0928494E2,2.9180096E2,4.8936E1,5.3040833E0,2.4310665E1,1.08E1,2E-1,6.1540833E0,3.0600593E0,1.825026E1,2.0115744E2,2.2998639E2,1.3556282E1,8.000001E-1,1.4657631E2,1.433234E1,9.747682E0,3.0341583E1,4.4777058E1,1.758481E1,5.5370678E1,6.2749157E0,1.7654688E1,-2.0623903E0,4.1262268E1,2.3950148E1,6.439876E0,1.2057902E2,1.8263774E2,8.225035E0,1.0990322E1,2.0853236E2,8.854829E0,4.4785814E0,2.2838864E2,2.330192E2,2.7560333E1,1.8006166E1,1.5249917E1,2.1547836E1,1.1201796E2,1.5271588E2,2.7579074E2,2.729779E2,2.7893667E1,1.594601E1,-1.3743936E0,1.5593749E0,4.594323E-1,-2.6481872E0,2.8106408E0,8.102226E0,-4.827557E0,-6.737469E-1,3.0863374E-1,-1.0796025E0,1.4782265E0,1.936844E-1,-2.9948702E0,-1.2969006E0,1.4197593E0,-2.0052905E0,-4.6526184E0,1.9522393E0,-4.248464E-1,-4.994149E0,2.8751445E0,-1.7372313E-1,-1.3205572E0,6.2031536E0,2.6628244E-1,-1.7893412E0,2.3206651E0,2.1724354E-1,1.0120711E0,-3.3736327E0,6.257483E-1,4.1916738E0,-4.0812516E0,-1.3903136E-2,-2.3758497E0,1.2069386E0,1.6278025E0,3.2299805E-2,9.588577E-1,7.38034E-3,-9.0073544E-1,7.781048E-1,-3.7221935E-1,-1.8292483E0,3.298863E0,1.0419116E-1,-1.323979E0,-4.3625617E0,-6.025883E-1,8.266279E-2,-4.8385164E-1,-2.0319376E0,1.8395138E-1,8.374832E-1],"split_indices":[0,3,2,1,1,0,0,3,0,3,3,0,3,3,3,3,0,2,1,1,0,0,2,3,3,2,1,3,2,3,0,3,2,3,0,2,0,3,2,2,3,3,2,2,3,2,0,3,3,0,0,0,0,3,3,3,3,0,2,0,0,0,0,0,0,0,0,0,0,0,0,0,0,0,0,0,0,0,0,0,0,0,0,0,0,0,0,0,0,0,0,0,0,0,0,0,0,0,0,0,0,0,0,0,0,0,0,0,0,0,0,0,0],"split_type":[0,0,0,0,0,0,0,0,0,0,0,0,0,0,0,0,0,0,0,0,0,0,0,0,0,0,0,0,0,0,0,0,0,0,0,0,0,0,0,0,0,0,0,0,0,0,0,0,0,0,0,0,0,0,0,0,0,0,0,0,0,0,0,0,0,0,0,0,0,0,0,0,0,0,0,0,0,0,0,0,0,0,0,0,0,0,0,0,0,0,0,0,0,0,0,0,0,0,0,0,0,0,0,0,0,0,0,0,0,0,0,0,0],"sum_hessian":[2.723E3,3.3E2,2.393E3,1.57E2,1.73E2,1.056E3,1.337E3,1.3E2,2.7E1,1.35E2,3.8E1,4.24E2,6.32E2,1.235E3,1.02E2,1.17E2,1.3E1,4E0,2.3E1,7.2E1,6.3E1,6E0,3.2E1,1.7E1,4.07E2,1.9E1,6.13E2,7.1E2,5.25E2,9.2E1,1E1,1.09E2,8E0,6E0,7E0,3E0,1E0,1.7E1,6E0,6.3E1,9E0,4.4E1,1.9E1,2.2E1,1E1,1.6E1,1E0,3.52E2,5.5E1,1.6E1,3E0,4.54E2,1.59E2,4.43E2,2.67E2,1.1E1,5.14E2,2E0,9E1,9E0,1E0,9.8E1,1.1E1,7E0,1E0,4E0,2E0,6E0,1E0,2E0,1E0,1.2E1,5E0,3E0,3E0,2E0,6.1E1,6E0,3E0,2.6E1,1.8E1,3E0,1.6E1,7E0,1.5E1,6E0,4E0,5E0,1.1E1,3.47E2,5E0,3E0,5.2E1,1.5E1,1E0,1E0,2E0,4.4E1,4.1E2,1.12E2,4.7E1,3.96E2,4.7E1,2.1E1,2.46E2,8E0,3E0,4.33E2,8.1E1,1E0,1E0,2.5E1,6.5E1],"tree_param":{"num_deleted":"0","num_feature":"4","num_nodes":"113","size_leaf_vector":"1"}},{"base_weights":[1.8049793E-2,1.3662239E0,-3.3460596E-1,2.6777723E0,-3.7018898E-1,-1.5971476E-1,-1.7803384E0,2.4169323E0,6.84309E0,-3.0272998E-2,-4.3939166E0,-2.0890261E-1,5.73129E0,-4.5446992E-1,-2.9421544E0,8.92515E-1,3.5742645E0,2.11087E0,-1.2641938E0,-7.5466795E0,8.844669E-1,-2.0173702E0,-7.482482E-2,4.804271E0,-3.986166E-1,-5.3725758E0,3.7862659E-1,-8.0619097E-1,-4.423359E0,5.047748E-1,1.3852554E1,1.0083769E1,2.9681756E0,8.72189E-1,1.013931E1,5.001058E0,-2.086421E0,-3.7702768E0,-5.2857385E0,1.9143437E0,-8.123651E-1,4.0954113E0,-2.8360636E0,4.3351835E-1,-6.557858E-1,-3.6367257E0,4.2144594E0,-2.5769732E0,-8.5987835E0,8.491369E0,-2.637085E-1,9.234941E-1,-3.6198618E0,-8.355927E0,-3.5127566E0,5.713332E-1,-8.019487E-1,1.1616623E0,6.5690393E0,4.714422E0,-2.7990258E0,7.7138215E-1,4.5940633E0,-2.8473279E-2,1.3853909E0,5.103772E0,-4.5333645E-1,-3.7143776E-1,2.8476899E0,-1.376465E0,-1.2716486E-1,1.1716347E-1,-2.3322673E0,-1.0233903E0,2.728408E-1,-9.4858766E-1,2.3045E0,-9.7663367E-1,9.85483E-1,1.8104632E-1,-9.0058273E-1,-6.5113105E-2,-5.5810827E-1,2.120556E-1,-1.3435391E0,1.6103363E0,-5.9828E-2,-1.2379844E0,7.243183E-1,-2.8928754E0,-3.5009652E-1,-2.0599996E-1,3.0406458E0,8.9729035E-1,-5.6599545E-1,-3.022059E-1,1.6395533E0,-1.6578867E0,2.130348E-1,-4.8653337E-1,-3.7086148E0,-1.6622335E0,-6.418381E-1],"categories":[],"categories_nodes":[],"categories_segments":[],"categories_sizes":[],"default_left":[0,0,0,0,0,0,0,0,0,0,0,0,0,0,0,0,0,0,0,0,0,0,0,0,0,0,0,0,0,0,0,0,0,0,0,0,0,0,0,0,0,0,0,0,0,0,0,0,0,0,0,0,0,0,0,0,0,0,0,0,0,0,0,0,0,0,0,0,0,0,0,0,0,0,0,0,0,0,0,0,0,0,0,0,0,0,0,0,0,0,0,0,0,0,0,0,0,0,0,0,0,0,0],"id":8,"left_children":[1,3,5,7,9,11,13,15,-1,17,19,21,23,25,27,29,31,33,35,37,39,41,43,-1,45,47,49,51,53,55,57,59,61,63,65,67,69,-1,71,-1,73,75,77,79,81,83,85,87,89,91,93,95,97,99,101,-1,-1,-1,-1,-1,-1,-1,-1,-1,-1,-1,-1,-1,-1,-1,-1,-1,-1,-1,-1,-1,-1,-1,-1,-1,-1,-1,-1,-1,-1,-1,-1,-1,-1,-1,-1,-1,-1,-1,-1,-1,-1,-1,-1,-1,-1,-1,-1],"loss_changes":[1.2955594E3,1.2877163E3,5.458628E2,1.6358079E3,3.3359296E2,5.5986584E2,3.5757965E2,5.596079E2,0E0,5.997607E2,3.2286313E2,4.637044E2,1.0149196E3,4.5273245E2,3.8874512E2,6.915005E2,6.841758E2,8.1656464E2,7.522447E2,6.979468E1,7.979934E1,6.722081E2,5.265579E2,0E0,1.7964088E2,1.22148285E2,4.9729364E2,2.5641467E2,2.3206116E2,6.100272E2,2.3634839E2,1.7864025E3,7.789083E2,2.6488397E2,9.065493E2,4.8812125E2,5.3044934E2,0E0,1.4428964E2,0E0,3.4427025E1,4.4071762E2,3.110374E2,5.5712244E2,4.3930634E2,2.8758713E1,2.6523773E1,8.731156E1,4.306537E1,1.1258804E2,4.7575464E2,2.9489215E2,1.6902005E2,3.306632E2,1.5803534E2,0E0,0E0,0E0,0E0,0E0,0E0,0E0,0E0,0E0,0E0,0E0,0E0,0E0,0E0,0E0,0E0,0E0,0E0,0E0,0E0,0E0,0E0,0E0,0E0,0E0,0E0,0E0,0E0,0E0,0E0,0E0,0E0,0E0,0E0,0E0,0E0,0E0,0E0,0E0,0E0,0E0,0E0,0E0,0E0,0E0,0E0,0E0,0E0],"parents":[2147483647,0,0,1,1,2,2,3,3,4,4,5,5,6,6,7,7,9,9,10,10,11,11,12,12,13,13,14,14,15,15,16,16,17,17,18,18,19,19,20,20,21,21,22,22,24,24,25,25,26,26,27,27,28,28,29,29,30,30,31,31,32,32,33,33,34,34,35,35,36,36,38,38,40,40,41,41,42,42,43,43,44,44,45,45,46,46,47,47,48,48,49,49,50,50,51,51,52,52,53,53,54,54],"right_children":[2,4,6,8,10,12,14,16,-1,18,20,22,24,26,28,30,32,34,36,38,40,42,44,-1,46,48,50,52,54,56,58,60,62,64,66,68,70,-1,72,-1,74,76,78,80,82,84,86,88,90,92,94,96,98,100,102,-1,-1,-1,-1,-1,-1,-1,-1,-1,-1,-1,-1,-1,-1,-1,-1,-1,-1,-1,-1,-1,-1,-1,-1,-1,-1,-1,-1,-1,-1,-1,-1,-1,-1,-1,-1,-1,-1,-1,-1,-1,-1,-1,-1,-1,-1,-1,-1],"split_conditions":[8.868665E0,1.5226764E1,6.9999995E0,1.503835E1,3.00767E1,6.5E0,1.5695694E2,1.2485321E2,6.84309E0,3.6638954E1,3.7270065E1,3.4094055E1,1.2313894E1,8.799999E0,1.08E1,9.600001E0,7.145796E0,3.5696404E1,3.1478338E0,1E-1,1E-1,1.1246759E1,2.1073537E2,4.804271E0,1.3497833E1,8E0,9.1E0,2.1931622E2,1.0976998E1,1E-1,7.5645003E0,7.7019997E0,8.808249E0,7.181166E0,5E-1,2.5207498E0,4.671489E1,-3.7702768E0,3.1106167E1,1.9143437E0,3.0453527E1,1.9601294E1,2.8233252E1,2.4023088E1,5E-1,1.3783817E1,2.1073537E2,7.8E0,1.3868667E1,6.0187125E0,1.2560333E1,1.60395E1,2.4626125E2,1.0037417E1,1.8959306E2,5.713332E-1,-8.019487E-1,1.1616623E0,6.5690393E0,4.714422E0,-2.7990258E0,7.7138215E-1,4.5940633E0,-2.8473279E-2,1.3853909E0,5.103772E0,-4.5333645E-1,-3.7143776E-1,2.8476899E0,-1.376465E0,-1.2716486E-1,1.1716347E-1,-2.3322673E0,-1.0233903E0,2.728408E-1,-9.4858766E-1,2.3045E0,-9.7663367E-1,9.85483E-1,1.8104632E-1,-9.0058273E-1,-6.5113105E-2,-5.5810827E-1,2.120556E-1,-1.3435391E0,1.6103363E0,-5.9828E-2,-1.2379844E0,7.243183E-1,-2.8928754E0,-3.5009652E-1,-2.0599996E-1,3.0406458E0,8.9729035E-1,-5.6599545E-1,-3.022059E-1,1.6395533E0,-1.6578867E0,2.130348E-1,-4.8653337E-1,-3.7086148E0,-1.6622335E0,-6.418381E-1],"split_indices":[0,2,1,2,2,1,3,3,0,3,3,3,2,1,1,1,2,3,0,1,1,2,3,0,0,1,1,3,0,1,0,0,0,0,1,0,3,0,2,0,2,3,0,2,1,2,3,1,0,3,0,0,3,0,3,0,0,0,0,0,0,0,0,0,0,0,0,0,0,0,0,0,0,0,0,0,0,0,0,0,0,0,0,0,0,0,0,0,0,0,0,0,0,0,0,0,0,0,0,0,0,0,0],"split_type":[0,0,0,0,0,0,0,0,0,0,0,0,0,0,0,0,0,0,0,0,0,0,0,0,0,0,0,0,0,0,0,0,0,0,0,0,0,0,0,0,0,0,0,0,0,0,0,0,0,0,0,0,0,0,0,0,0,0,0,0,0,0,0,0,0,0,0,0,0,0,0,0,0,0,0,0,0,0,0,0,0,0,0,0,0,0,0,0,0,0,0,0,0,0,0,0,0,0,0,0,0,0,0],"sum_hessian":[2.723E3,5.64E2,2.159E3,3.21E2,2.43E2,1.927E3,2.32E2,3.18E2,3E0,2.25E2,1.8E1,1.912E3,1.5E1,1.09E2,1.23E2,1.38E2,1.8E2,8.2E1,1.43E2,1.1E1,7E0,1.31E2,1.781E3,5E0,1E1,1.5E1,9.4E1,5.1E1,7.2E1,1.35E2,3E0,1.4E1,1.66E2,7.2E1,1E1,1.6E1,1.27E2,2E0,9E0,1E0,6E0,1.5E1,1.16E2,9.5E2,8.31E2,6E0,4E0,9E0,6E0,6E0,8.8E1,3.2E1,1.9E1,1.2E1,6E1,9.4E1,4.1E1,2E0,1E0,1.1E1,3E0,1.62E2,4E0,5.8E1,1.4E1,6E0,4E0,7E0,9E0,5E1,7.7E1,3E0,6E0,2E0,4E0,5E0,1E1,1.09E2,7E0,9.06E2,4.4E1,6.1E2,2.21E2,1E0,5E0,3E0,1E0,7E0,2E0,5E0,1E0,1E0,5E0,2.9E1,5.9E1,2.3E1,9E0,1.3E1,6E0,5E0,7E0,2.3E1,3.7E1],"tree_param":{"num_deleted":"0","num_feature":"4","num_nodes":"103","size_leaf_vector":"1"}},{"base_weights":[2.064901E-2,7.360658E-1,-3.8758343E-1,1.6272217E0,-3.1963202E-1,-6.932728E-1,4.8949862E-1,3.7605032E-1,2.6069572E0,-1.6664972E0,1.0109844E0,-3.5386531E0,-5.84952E-1,-1.765726E-2,3.2356377E0,-4.8861537E0,7.032593E-1,3.3068757E0,-2.0426815E0,-2.6676338E0,1.8210818E0,5.115748E0,-4.4370264E-1,-9.686258E-1,-7.275081E0,1.1340331E-1,-1.0674855E0,-6.690738E-1,1.225639E0,5.5132713E0,-5.959001E-1,-1.1181087E0,-9.723862E0,2.3424327E0,-4.5694074E-1,2.8382702E0,1.3741574E1,-6.0445595E0,1.8659016E0,2.3130546E0,-3.7905161E0,3.5962307E0,-8.169872E0,1.4922066E1,4.1488314E0,-3.3069043E0,-1.2237578E-1,-2.594346E0,-7.950698E-2,-1.0300066E1,-3.5225885E0,5.010771E-1,-3.7910833E0,-1.3793858E0,5.560283E-1,-4.190491E0,-2.76576E-1,-4.9791384E0,1.4099629E0,4.011856E0,1.1768158E1,-2.3527596E0,1.7962375E0,2.613593E0,-2.2455444E0,-8.682015E-1,-3.1533098E0,3.9949942E-1,2.7162437E0,1.724743E-1,-1.9872066E0,1.7423832E0,6.2785256E-1,5.728539E0,1.0494846E0,-7.312007E-1,-3.3452187E0,1.8212074E0,-1.0099308E0,1.2555604E-1,3.851623E0,-6.452427E-1,-1.9695846E0,1.3663652E0,-1.4368727E0,-2.706028E0,-3.3274958E-1,1.4680487E0,8.255452E0,-2.133941E0,1.4092999E0,1.0195684E0,-2.965677E-1,-5.5868244E-1,5.950947E-1,-1.0975031E0,-3.450961E0,-1.9781619E0,-1.12826064E-1,-4.109262E0,1.777167E-1,-1.363197E0,1.5751296E0,-2.2237495E-2,-5.2263165E-1,1.1150515E0,-1.799027E-1,-1.8758252E0,1.5927289E0,2.0706286E0,-1.6126432E-1,-2.266143E0,4.1173154E-1,1.4770314E0,3.01217E-1,1.414847E0,-1.6626797E0,4.093896E0,1.226735E0,-1.3367164E0,5.684391E-1,-5.005131E-1,7.967994E-1],"categories":[],"categories_nodes":[],"categories_segments":[],"categories_sizes":[],"default_left":[0,0,0,0,0,0,0,0,0,0,0,0,0,0,0,0,0,0,0,0,0,0,0,0,0,0,0,0,0,0,0,0,0,0,0,0,0,0,0,0,0,0,0,0,0,0,0,0,0,0,0,0,0,0,0,0,0,0,0,0,0,0,0,0,0,0,0,0,0,0,0,0,0,0,0,0,0,0,0,0,0,0,0,0,0,0,0,0,0,0,0,0,0,0,0,0,0,0,0,0,0,0,0,0,0,0,0,0,0,0,0,0,0,0,0,0,0,0,0,0,0,0,0],"id":9,"left_children":[1,3,5,7,9,11,13,15,17,19,21,23,25,27,29,31,33,35,37,39,41,43,45,47,49,51,53,55,57,59,61,63,65,67,69,71,73,75,77,79,81,83,85,87,89,-1,91,-1,93,95,97,99,101,103,105,107,109,111,113,115,117,119,121,-1,-1,-1,-1,-1,-1,-1,-1,-1,-1,-1,-1,-1,-1,-1,-1,-1,-1,-1,-1,-1,-1,-1,-1,-1,-1,-1,-1,-1,-1,-1,-1,-1,-1,-1,-1,-1,-1,-1,-1,-1,-1,-1,-1,-1,-1,-1,-1,-1,-1,-1,-1,-1,-1,-1,-1,-1,-1,-1,-1],"loss_changes":[7.9584674E2,9.319035E2,4.6551834E2,6.5728345E2,8.153258E2,3.9460138E2,6.253887E2,4.1151236E2,9.863192E2,7.939467E2,1.3696625E3,4.442812E2,4.183129E2,3.0858347E2,6.141642E2,2.443295E2,4.2706665E2,1.2421138E3,6.3694543E2,9.9308777E2,9.338877E2,5.070044E2,5.765519E2,1.973162E2,1.793905E2,7.7084265E2,3.7244586E2,3.4437817E2,1.5684369E2,3.6599988E2,1.17697655E2,6.2850726E2,1.838623E0,6.1885364E2,8.437946E2,5.4569214E2,5.3641797E2,3.4120386E2,4.8245505E2,6.5268896E2,6.410513E2,3.7541095E2,3.8020508E1,4.969447E2,3.7954883E2,0E0,5.0962265E2,0E0,1.0300355E2,3.7826416E1,9.415814E1,6.083948E2,3.3699902E2,2.915122E2,4.369312E2,5.229617E2,4.2710535E2,7.578004E1,1.7760269E2,2.751101E2,5.957849E1,1.5136188E2,4.017608E1,0E0,0E0,0E0,0E0,0E0,0E0,0E0,0E0,0E0,0E0,0E0,0E0,0E0,0E0,0E0,0E0,0E0,0E0,0E0,0E0,0E0,0E0,0E0,0E0,0E0,0E0,0E0,0E0,0E0,0E0,0E0,0E0,0E0,0E0,0E0,0E0,0E0,0E0,0E0,0E0,0E0,0E0,0E0,0E0,0E0,0E0,0E0,0E0,0E0,0E0,0E0,0E0,0E0,0E0,0E0,0E0,0E0,0E0,0E0,0E0],"parents":[2147483647,0,0,1,1,2,2,3,3,4,4,5,5,6,6,7,7,8,8,9,9,10,10,11,11,12,12,13,13,14,14,15,15,16,16,17,17,18,18,19,19,20,20,21,21,22,22,23,23,24,24,25,25,26,26,27,27,28,28,29,29,30,30,31,31,32,32,33,33,34,34,35,35,36,36,37,37,38,38,39,39,40,40,41,41,42,42,43,43,44,44,46,46,48,48,49,49,50,50,51,51,52,52,53,53,54,54,55,55,56,56,57,57,58,58,59,59,60,60,61,61,62,62],"right_children":[2,4,6,8,10,12,14,16,18,20,22,24,26,28,30,32,34,36,38,40,42,44,46,48,50,52,54,56,58,60,62,64,66,68,70,72,74,76,78,80,82,84,86,88,90,-1,92,-1,94,96,98,100,102,104,106,108,110,112,114,116,118,120,122,-1,-1,-1,-1,-1,-1,-1,-1,-1,-1,-1,-1,-1,-1,-1,-1,-1,-1,-1,-1,-1,-1,-1,-1,-1,-1,-1,-1,-1,-1,-1,-1,-1,-1,-1,-1,-1,-1,-1,-1,-1,-1,-1,-1,-1,-1,-1,-1,-1,-1,-1,-1,-1,-1,-1,-1,-1,-1,-1,-1],"split_conditions":[1.17561655E1,2E-1,2.4389498E1,9.7226135E1,1.5055313E2,2.5365782E1,4E-1,1.9561666E0,2.4814111E2,8.7E0,1.7783215E2,9E-1,1.6141689E2,2.7560333E1,1.7287498E1,4.5525604E1,6.0749164E0,1.9296135E1,2.6698724E2,1.0990322E1,2.4162947E1,5.160333E0,8.373386E0,1.2004085E1,1.5249917E1,2.2939499E1,2.2647835E1,4.1813274E1,9.028754E0,1.608761E1,2.1247116E2,1.9586119E1,8.905908E0,7.167886E1,7.167886E1,5.722833E0,1.0549918E1,2.5843573E2,1.2031756E1,1.0636766E1,8.258249E0,2.4400002E1,1.484732E2,4.5749164E0,5.8144994E0,-3.3069043E0,8.374916E0,-2.594346E0,1.3441071E1,6.0187125E0,1.4512064E1,1.1806167E1,6.2999997E0,1.1885453E1,2.2507458E2,1.9296135E1,4.601874E1,2.9385338E1,1.2538134E1,1.5546833E1,2.5395752E1,2.1999998E0,1.731746E1,2.613593E0,-2.2455444E0,-8.682015E-1,-3.1533098E0,3.9949942E-1,2.7162437E0,1.724743E-1,-1.9872066E0,1.7423832E0,6.2785256E-1,5.728539E0,1.0494846E0,-7.312007E-1,-3.3452187E0,1.8212074E0,-1.0099308E0,1.2555604E-1,3.851623E0,-6.452427E-1,-1.9695846E0,1.3663652E0,-1.4368727E0,-2.706028E0,-3.3274958E-1,1.4680487E0,8.255452E0,-2.133941E0,1.4092999E0,1.0195684E0,-2.965677E-1,-5.5868244E-1,5.950947E-1,-1.0975031E0,-3.450961E0,-1.9781619E0,-1.12826064E-1,-4.109262E0,1.777167E-1,-1.363197E0,1.5751296E0,-2.2237495E-2,-5.2263165E-1,1.1150515E0,-1.799027E-1,-1.8758252E0,1.5927289E0,2.0706286E0,-1.6126432E-1,-2.266143E0,4.1173154E-1,1.4770314E0,3.01217E-1,1.414847E0,-1.6626797E0,4.093896E0,1.226735E0,-1.3367164E0,5.684391E-1,-5.005131E-1,7.967994E-1],"split_indices":[0,1,0,3,3,3,1,0,3,1,3,1,3,0,2,3,0,2,3,2,2,0,2,0,0,0,0,3,2,2,3,2,2,3,3,0,0,3,2,2,0,1,3,0,0,0,0,0,2,3,2,0,1,2,3,2,3,0,2,2,0,1,2,0,0,0,0,0,0,0,0,0,0,0,0,0,0,0,0,0,0,0,0,0,0,0,0,0,0,0,0,0,0,0,0,0,0,0,0,0,0,0,0,0,0,0,0,0,0,0,0,0,0,0,0,0,0,0,0,0,0,0,0],"split_type":[0,0,0,0,0,0,0,0,0,0,0,0,0,0,0,0,0,0,0,0,0,0,0,0,0,0,0,0,0,0,0,0,0,0,0,0,0,0,0,0,0,0,0,0,0,0,0,0,0,0,0,0,0,0,0,0,0,0,0,0,0,0,0,0,0,0,0,0,0,0,0,0,0,0,0,0,0,0,0,0,0,0,0,0,0,0,0,0,0,0,0,0,0,0,0,0,0,0,0,0,0,0,0,0,0,0,0,0,0,0,0,0,0,0,0,0,0,0,0,0,0,0,0],"sum_hessian":[2.723E3,9.89E2,1.734E3,5.36E2,4.53E2,1.286E3,4.48E2,2.36E2,3E2,2.25E2,2.28E2,4.6E1,1.24E3,3.79E2,6.9E1,1.3E1,2.23E2,2.61E2,3.9E1,1.75E2,5E1,5.9E1,1.69E2,2.8E1,1.8E1,5.07E2,7.33E2,2.49E2,1.3E2,4.3E1,2.6E1,8E0,5E0,9.2E1,1.31E2,2.51E2,1E1,1.9E1,2E1,3.2E1,1.43E2,4.3E1,7E0,4E0,5.5E1,4E0,1.65E2,2E0,2.6E1,9E0,9E0,4.62E2,4.5E1,6.15E2,1.18E2,2.4E1,2.25E2,3E0,1.27E2,3.6E1,7E0,1.5E1,1.1E1,3E0,5E0,1E0,4E0,8.1E1,1.1E1,1.13E2,1.8E1,4.9E1,2.02E2,6E0,4E0,1.2E1,7E0,1.1E1,9E0,2.8E1,4E0,9.1E1,5.2E1,3.9E1,4E0,6E0,1E0,3E0,1E0,2E0,5.3E1,3.2E1,1.33E2,1.4E1,1.2E1,2E0,7E0,4E0,5E0,2E0,4.6E2,4.2E1,3E0,1.34E2,4.81E2,3.1E1,8.7E1,2E1,4E0,7E0,2.18E2,2E0,1E0,1.2E1,1.15E2,3.4E1,2E0,5E0,2E0,1E1,5E0,2E0,9E0],"tree_param":{"num_deleted":"0","num_feature":"4","num_nodes":"123","size_leaf_vector":"1"}},{"base_weights":[1.5123417E-2,2.870479E0,-4.3700434E-2,9.936458E0,1.6330143E0,1.2224111E-1,-1.0141337E0,-3.6269534E0,1.4810193E1,-3.2266421E0,2.405459E0,6.121032E-1,-3.3214307E-1,-2.7845714E0,-7.9245853E-1,5.560903E0,1.7397728E1,4.5372806E0,-1.8752868E0,1.0487529E0,-3.941601E-1,-3.1506362E0,-1.2505062E-1,-5.751245E0,-9.8988014E-1,-1.9816515E0,-4.1841534E-1,2.0012033E0,5.012032E-1,6.801579E0,1.8972856E0,9.944533E0,1.4888493E0,-7.7366157E0,3.5431485E0,7.828494E-1,4.7612653E0,3.398064E-2,-7.8885107E0,-4.8861856E0,3.090176E-1,7.7278495E0,-2.9186362E-1,-3.0980532E0,-2.1100066E0,7.392317E-1,-7.453162E0,-1.5962088E0,-6.6621327E0,2.137112E0,-9.4844174E-1,1.8948187E0,3.910646E0,7.025394E-1,-8.1648964E-1,-3.794252E0,-1.1975205E0,2.3819847E0,-4.6868458E-1,8.719029E-2,6.1539334E-1,1.827305E0,-9.442568E-1,-7.2836953E-1,1.9698426E-1,-3.0317347E0,-3.0735398E-2,-6.4213115E-1,-3.0776308E0,-9.027534E-1,1.9748063E0,8.1675714E-1,6.436756E0,-2.2350764E-1,1.0904281E-1,-1.717569E0,-2.70641E-1,1.019909E0,-5.948508E-1,-2.6711674E0,-9.1034114E-1,-5.941903E-1,7.7577364E-1,3.7012484E-2,-2.4131727E0,3.6627236E-1,6.5049453E0,1.101655E0,-3.485766E-1],"categories":[],"categories_nodes":[],"categories_segments":[],"categories_sizes":[],"default_left":[0,0,0,0,0,0,0,0,0,0,0,0,0,0,0,0,0,0,0,0,0,0,0,0,0,0,0,0,0,0,0,0,0,0,0,0,0,0,0,0,0,0,0,0,0,0,0,0,0,0,0,0,0,0,0,0,0,0,0,0,0,0,0,0,0,0,0,0,0,0,0,0,0,0,0,0,0,0,0,0,0,0,0,0,0,0,0,0,0],"id":10,"left_children":[1,3,5,7,9,11,13,-1,15,-1,17,19,21,23,25,27,29,31,33,35,37,39,41,43,45,47,49,-1,-1,-1,-1,51,53,55,57,59,61,63,65,67,69,71,73,75,-1,77,79,81,83,85,87,-1,-1,-1,-1,-1,-1,-1,-1,-1,-1,-1,-1,-1,-1,-1,-1,-1,-1,-1,-1,-1,-1,-1,-1,-1,-1,-1,-1,-1,-1,-1,-1,-1,-1,-1,-1,-1,-1],"loss_changes":[4.576567E2,4.6468814E2,4.3008792E2,1.0378557E3,4.8520395E2,5.0792108E2,1.5085352E2,0E0,7.078296E1,0E0,4.2829492E2,4.828575E2,6.906934E2,2.2325027E2,1.539646E2,1.8072586E0,1.4863403E2,4.9618683E2,5.355597E2,7.524448E2,1.068744E3,4.878664E2,1.4484578E3,3.2637207E1,3.1843027E2,1.391026E2,3.6232312E2,0E0,0E0,0E0,0E0,4.1036865E1,8.179131E1,9.664011E1,2.1443246E2,4.4644263E2,5.555242E2,4.8597433E2,3.0971313E2,7.7463696E2,6.0269183E2,1.521988E3,3.2159766E2,3.5218483E1,0E0,1.7330624E2,1.1443329E1,1.3052344E2,5.724878E1,7.9730225E2,2.2226382E2,0E0,0E0,0E0,0E0,0E0,0E0,0E0,0E0,0E0,0E0,0E0,0E0,0E0,0E0,0E0,0E0,0E0,0E0,0E0,0E0,0E0,0E0,0E0,0E0,0E0,0E0,0E0,0E0,0E0,0E0,0E0,0E0,0E0,0E0,0E0,0E0,0E0,0E0],"parents":[2147483647,0,0,1,1,2,2,3,3,4,4,5,5,6,6,8,8,10,10,11,11,12,12,13,13,14,14,15,15,16,16,17,17,18,18,19,19,20,20,21,21,22,22,23,23,24,24,25,25,26,26,31,31,32,32,33,33,34,34,35,35,36,36,37,37,38,38,39,39,40,40,41,41,42,42,43,43,45,45,46,46,47,47,48,48,49,49,50,50],"right_children":[2,4,6,8,10,12,14,-1,16,-1,18,20,22,24,26,28,30,32,34,36,38,40,42,44,46,48,50,-1,-1,-1,-1,52,54,56,58,60,62,64,66,68,70,72,74,76,-1,78,80,82,84,86,88,-1,-1,-1,-1,-1,-1,-1,-1,-1,-1,-1,-1,-1,-1,-1,-1,-1,-1,-1,-1,-1,-1,-1,-1,-1,-1,-1,-1,-1,-1,-1,-1,-1,-1,-1,-1,-1,-1],"split_conditions":[7.145796E0,5.647833E0,4.4999995E0,1.2282857E2,6.2749157E0,1.4847835E1,3.7270065E1,-3.6269534E0,4.5749164E0,-3.2266421E0,1.8576898E2,4E-1,1.5829085E1,7.8E0,1.3556282E1,4.2561665E0,5.4978333E0,1.1131167E1,1.2204085E1,1.4016585E1,2.6698724E2,3E-1,1.6143667E1,2.6448914E1,1.91E1,1.3363711E1,1.5188415E1,2.0012033E0,5.012032E-1,6.801579E0,1.8972856E0,8.868665E0,1.5417505E2,6.439876E0,6.638072E0,1.8338843E2,1.9134262E1,4.4004986E1,2.0746122E1,1.5587418E1,1.944E1,1.835647E1,2.4389498E1,9.747682E0,-2.1100066E0,1.1289498E1,2.5365782E1,1.3009903E1,4.2561665E0,1.5141414E1,4.1262268E1,1.8948187E0,3.910646E0,7.025394E-1,-8.1648964E-1,-3.794252E0,-1.1975205E0,2.3819847E0,-4.6868458E-1,8.719029E-2,6.1539334E-1,1.827305E0,-9.442568E-1,-7.2836953E-1,1.9698426E-1,-3.0317347E0,-3.0735398E-2,-6.4213115E-1,-3.0776308E0,-9.027534E-1,1.9748063E0,8.1675714E-1,6.436756E0,-2.2350764E-1,1.0904281E-1,-1.717569E0,-2.70641E-1,1.019909E0,-5.948508E-1,-2.6711674E0,-9.1034114E-1,-5.941903E-1,7.7577364E-1,3.7012484E-2,-2.4131727E0,3.6627236E-1,6.5049453E0,1.101655E0,-3.485766E-1],"split_indices":[2,0,1,3,0,0,3,0,0,0,3,1,0,1,2,0,0,0,0,0,3,1,0,3,1,2,2,0,0,0,0,0,3,2,2,3,2,3,2,0,2,2,0,3,0,0,3,2,0,2,3,0,0,0,0,0,0,0,0,0,0,0,0,0,0,0,0,0,0,0,0,0,0,0,0,0,0,0,0,0,0,0,0,0,0,0,0,0,0],"split_type":[0,0,0,0,0,0,0,0,0,0,0,0,0,0,0,0,0,0,0,0,0,0,0,0,0,0,0,0,0,0,0,0,0,0,0,0,0,0,0,0,0,0,0,0,0,0,0,0,0,0,0,0,0,0,0,0,0,0,0,0,0,0,0,0,0,0,0,0,0,0,0,0,0,0,0,0,0,0,0,0,0,0,0,0,0,0,0,0,0],"sum_hessian":[2.723E3,5.4E1,2.669E3,7E0,4.7E1,2.28E3,3.89E2,1E0,6E0,2E0,4.5E1,1.097E3,1.183E3,4.2E1,3.47E2,2E0,4E0,3E1,1.5E1,7.65E2,3.32E2,8E1,1.103E3,1.5E1,2.7E1,8.2E1,2.65E2,1E0,1E0,2E0,2E0,1E1,2E1,7E0,8E0,7.15E2,5E1,3.15E2,1.7E1,5.3E1,2.7E1,2.2E1,1.081E3,6E0,9E0,2.2E1,5E0,7.7E1,5E0,4.5E1,2.2E2,6E0,4E0,1.7E1,3E0,2E0,5E0,4E0,4E0,5.16E2,1.99E2,4.3E1,7E0,6.3E1,2.52E2,1.3E1,4E0,3.6E1,1.7E1,1.8E1,9E0,1.7E1,5E0,6.39E2,4.42E2,2E0,4E0,1.1E1,1.1E1,3E0,2E0,7.1E1,6E0,1E0,4E0,4.4E1,1E0,9E0,2.11E2],"tree_param":{"num_deleted":"0","num_feature":"4","num_nodes":"89","size_leaf_vector":"1"}},{"base_weights":[1.3383409E-2,9.503633E-1,-1.1617119E-1,7.225073E-1,6.9473248E0,1.8461494E0,-1.665451E-1,8.9344245E-1,-5.2835236E0,1.2002779E1,-1.0859203E-1,3.3244898E0,-2.8105042E0,-1.7830164E0,-8.430137E-2,6.3960016E-1,9.368401E0,2.3894525E0,-1.0206605E1,-1.3404083E-1,6.3416715E0,-7.555741E-1,1.726047E0,7.421804E0,1.4854932E0,-3.6627462E0,-4.2539245E-1,-7.904618E-1,-7.7509756E0,6.1902514E0,-1.1830242E-1,-3.8023355E0,7.6974106E-1,1.3423086E0,7.4919443E0,-1.4061264E1,-3.7997183E-1,1.1253731E0,-2.6795502E0,3.9671223E0,-7.4957687E-1,3.4562237E0,1.6770418E0,7.645796E-1,6.5209723E0,4.558049E0,-2.3762298E0,-1.4055828E0,1.0931906E1,2.2323923E0,-9.259882E0,7.9129734E0,-1.6155733E0,-2.548139E-2,-1.3941123E0,1.1369072E0,-3.1108153E-3,-6.960585E-1,2.0997136E0,-5.2084923E0,-1.8221399E0,-7.5091785E-1,5.7993054E-1,-1.6348572E-1,-1.0423119E0,1.4163243E0,3.6888087E-1,-1.0384476E0,1.3274262E0,4.7553945E-1,-2.1446292E0,2.329361E0,4.1854194E-1,3.252697E-1,1.6063733E0,-9.906541E-1,8.935988E-1,-2.5090163E0,-1.4331262E-1,1.4375708E0,5.323788E0,-4.9367247E0,-7.902665E-1,5.159301E-1,3.526545E0,-1.3610358E0,6.340279E-1,1.801643E-1,-6.3016094E-2,1.1472456E-2,-8.0457056E-1],"categories":[],"categories_nodes":[],"categories_segments":[],"categories_sizes":[],"default_left":[0,0,0,0,0,0,0,0,0,0,0,0,0,0,0,0,0,0,0,0,0,0,0,0,0,0,0,0,0,0,0,0,0,0,0,0,0,0,0,0,0,0,0,0,0,0,0,0,0,0,0,0,0,0,0,0,0,0,0,0,0,0,0,0,0,0,0,0,0,0,0,0,0,0,0,0,0,0,0,0,0,0,0,0,0,0,0,0,0,0,0],"id":11,"left_children":[1,3,5,7,9,11,13,15,17,19,21,23,25,27,29,31,33,-1,35,37,-1,-1,39,41,43,-1,45,47,49,51,53,-1,55,57,-1,59,61,-1,63,65,-1,-1,67,69,71,73,75,77,79,-1,81,83,85,87,89,-1,-1,-1,-1,-1,-1,-1,-1,-1,-1,-1,-1,-1,-1,-1,-1,-1,-1,-1,-1,-1,-1,-1,-1,-1,-1,-1,-1,-1,-1,-1,-1,-1,-1,-1,-1],"loss_changes":[3.307769E2,4.4727325E2,2.369538E2,3.332459E2,4.293537E2,4.2239056E2,3.1027545E2,6.652144E2,6.68299E2,7.79018E2,3.0875937E1,3.3558255E2,3.3105875E2,6.6323157E2,4.7499026E2,5.364977E2,1.0936846E3,0E0,2.598053E2,4.9611755E1,0E0,0E0,4.7783127E1,3.1034338E2,1.14809006E2,0E0,1.3721547E2,7.2201184E2,4.356853E2,1.7415115E2,2.619139E2,0E0,7.115194E2,1.6126387E2,0E0,2.6357117E1,1.9571241E1,0E0,3.1965122E0,3.8686752E-1,0E0,0E0,1.1415071E2,2.06131E2,1.4664581E1,5.2623672E0,5.941973E1,6.0286554E2,1.2415466E2,0E0,6.7181226E2,2.177378E2,4.2267765E1,2.3850085E2,2.7678806E2,0E0,0E0,0E0,0E0,0E0,0E0,0E0,0E0,0E0,0E0,0E0,0E0,0E0,0E0,0E0,0E0,0E0,0E0,0E0,0E0,0E0,0E0,0E0,0E0,0E0,0E0,0E0,0E0,0E0,0E0,0E0,0E0,0E0,0E0,0E0,0E0],"parents":[2147483647,0,0,1,1,2,2,3,3,4,4,5,5,6,6,7,7,8,8,9,9,10,10,11,11,12,12,13,13,14,14,15,15,16,16,18,18,19,19,22,22,23,23,24,24,26,26,27,27,28,28,29,29,30,30,32,32,33,33,35,35,36,36,38,38,39,39,42,42,43,43,44,44,45,45,46,46,47,47,48,48,50,50,51,51,52,52,53,53,54,54],"right_children":[2,4,6,8,10,12,14,16,18,20,22,24,26,28,30,32,34,-1,36,38,-1,-1,40,42,44,-1,46,48,50,52,54,-1,56,58,-1,60,62,-1,64,66,-1,-1,68,70,72,74,76,78,80,-1,82,84,86,88,90,-1,-1,-1,-1,-1,-1,-1,-1,-1,-1,-1,-1,-1,-1,-1,-1,-1,-1,-1,-1,-1,-1,-1,-1,-1,-1,-1,-1,-1,-1,-1,-1,-1,-1,-1,-1],"split_conditions":[6.681167E0,6.577E0,7.4128532E0,2.3732974E2,1E-1,1.9779129E2,7.8207498E0,2.1247116E2,7.7879906E0,8.4963045E0,1.608761E1,1.1289498E1,1.9981955E2,2.0928494E2,7.9811654E0,6.439876E0,6.0749164E0,2.3894525E0,1.3363711E1,7.24486E0,6.3416715E0,-7.555741E-1,3.00767E1,1.4450668E2,1.819681E2,-3.6627462E0,6.638072E0,1.23E1,7.7043357E0,2.4162947E1,1.03E1,-3.8023355E0,9.826088E0,1.1457958E1,7.4919443E0,2.4874939E2,4.7686667E0,1.1253731E0,7.5942082E0,6.5E0,-7.4957687E-1,3.4562237E0,1.6682353E2,1.6682353E2,1.5587418E1,1.5341582E1,3E-1,7.9932976E0,7.001999E0,2.2323923E0,2.2715796E2,1E-1,6.799999E0,1.17561655E1,1.5695694E2,1.1369072E0,-3.1108153E-3,-6.960585E-1,2.0997136E0,-5.2084923E0,-1.8221399E0,-7.5091785E-1,5.7993054E-1,-1.6348572E-1,-1.0423119E0,1.4163243E0,3.6888087E-1,-1.0384476E0,1.3274262E0,4.7553945E-1,-2.1446292E0,2.329361E0,4.1854194E-1,3.252697E-1,1.6063733E0,-9.906541E-1,8.935988E-1,-2.5090163E0,-1.4331262E-1,1.4375708E0,5.323788E0,-4.9367247E0,-7.902665E-1,5.159301E-1,3.526545E0,-1.3610358E0,6.340279E-1,1.801643E-1,-6.3016094E-2,1.1472456E-2,-8.0457056E-1],"split_indices":[0,0,2,3,1,3,0,3,2,2,2,0,3,3,0,2,0,0,2,2,0,0,2,3,3,0,2,1,2,2,1,0,2,2,0,3,0,0,2,1,0,0,3,3,0,0,1,2,0,0,3,1,1,0,3,0,0,0,0,0,0,0,0,0,0,0,0,0,0,0,0,0,0,0,0,0,0,0,0,0,0,0,0,0,0,0,0,0,0,0,0],"split_type":[0,0,0,0,0,0,0,0,0,0,0,0,0,0,0,0,0,0,0,0,0,0,0,0,0,0,0,0,0,0,0,0,0,0,0,0,0,0,0,0,0,0,0,0,0,0,0,0,0,0,0,0,0,0,0,0,0,0,0,0,0,0,0,0,0,0,0,0,0,0,0,0,0,0,0,0,0,0,0,0,0,0,0,0,0,0,0,0,0,0,0],"sum_hessian":[2.723E3,3.3E2,2.393E3,3.19E2,1.1E1,5.9E1,2.334E3,3.11E2,8E0,6E0,5E0,4.5E1,1.4E1,1.12E2,2.222E3,3.03E2,8E0,2E0,6E0,3E0,3E0,2E0,3E0,1.3E1,3.2E1,2E0,1.2E1,9.7E1,1.5E1,1.1E1,2.211E3,2E0,3.01E2,6E0,2E0,4E0,2E0,1E0,2E0,2E0,1E0,7E0,6E0,2.9E1,3E0,3E0,9E0,9.3E1,4E0,1E0,1.4E1,9E0,2E0,2.062E3,1.49E2,6.1E1,2.4E2,4E0,2E0,2E0,2E0,1E0,1E0,1E0,1E0,1E0,1E0,2E0,4E0,2.7E1,2E0,2E0,1E0,1E0,2E0,8E0,1E0,1E1,8.3E1,3E0,1E0,6E0,8E0,4E0,5E0,1E0,1E0,4.69E2,1.593E3,7.1E1,7.8E1],"tree_param":{"num_deleted":"0","num_feature":"4","num_nodes":"91","size_leaf_vector":"1"}},{"base_weights":[1.4583117E-2,2.822878E-1,-3.0319363E-1,1.3773808E-1,3.374879E0,-3.5070947E-1,3.6196547E0,2.6707083E-1,-2.507832E0,1.2175597E1,7.7130866E-1,-2.2302821E-1,-1.7480794E0,6.50266E-2,4.1615186E0,4.5444632E-1,-1.0990748E0,-6.5983114E0,-3.1263086E-1,1.3961173E1,-1.9233708E0,-3.6796095E0,1.819786E0,-3.957178E-1,1.1439273E0,-4.4696145E0,-3.4225604E-1,-5.2396776E-3,3.450165E-2,4.90115E0,5.9936327E-1,3.2714587E-1,4.8961906E0,-7.512022E-1,-8.7443495E0,-9.49288E0,3.185112E0,-2.0451028E0,5.7822843E0,5.406646E0,7.325601E0,3.3741436E0,9.60455E-1,-2.7640581E-2,-1.164631E0,5.261633E0,3.182855E-2,-5.0866804E0,1.5843182E0,5.058465E0,-1.567995E0,5.1815534E-1,1.6683772E0,7.437751E-2,2.3556817E0,-1.2825403E0,1.7867484E0,-1.1859853E0,-5.1626716E-2,-3.2521975E0,-7.007155E-1,8.871403E-2,-3.4410937E0,1.7792299E0,-1.5814737E0,-4.2488605E-2,-2.2584877E0,3.411555E0,5.286619E-1,7.496243E-1,2.6269782E0,-2.4170704E-1,1.2966998E0,-1.9809219E-1,6.200224E-1,-1.1509616E0,-2.0291102E-1,4.3294898E-1,2.7788455E0,-6.869924E-1,6.046009E-1,-2.6952791E0,-7.8518033E-1,1.4242585E0,-3.1577837E-1,2.6042638E0,-1.8434945E-1,2.5149355E0,-6.246822E-1],"categories":[],"categories_nodes":[],"categories_segments":[],"categories_sizes":[],"default_left":[0,0,0,0,0,0,0,0,0,0,0,0,0,0,0,0,0,0,0,0,0,0,0,0,0,0,0,0,0,0,0,0,0,0,0,0,0,0,0,0,0,0,0,0,0,0,0,0,0,0,0,0,0,0,0,0,0,0,0,0,0,0,0,0,0,0,0,0,0,0,0,0,0,0,0,0,0,0,0,0,0,0,0,0,0,0,0,0,0],"id":12,"left_children":[1,3,5,7,9,11,13,15,17,19,21,23,25,27,29,31,33,35,37,39,-1,-1,41,43,45,47,49,-1,-1,51,-1,53,55,57,59,61,63,65,67,-1,69,-1,71,73,75,77,79,81,83,85,87,-1,-1,-1,-1,-1,-1,-1,-1,-1,-1,-1,-1,-1,-1,-1,-1,-1,-1,-1,-1,-1,-1,-1,-1,-1,-1,-1,-1,-1,-1,-1,-1,-1,-1,-1,-1,-1,-1],"loss_changes":[2.3181714E2,6.606972E2,2.3352072E2,4.8448242E2,1.5028857E3,2.1942102E2,2.8621246E1,3.4581943E2,5.905792E2,5.8733154E2,7.330904E2,2.6719928E2,3.9254797E2,1.4377244E-2,1.1011993E1,6.695709E2,4.2694293E2,6.8156793E2,4.7643323E2,2.4523389E2,0E0,0E0,3.8615747E2,2.8411935E2,5.81403E2,1.3880768E2,4.647029E2,0E0,0E0,9.251083E0,0E0,6.8660284E2,3.4616492E2,2.9045547E2,6.872058E1,3.5180505E2,1.7057938E2,3.642326E2,2.0466537E2,0E0,2.6469788E1,0E0,2.766104E2,9.023956E2,4.213962E2,3.9914935E2,4.6975186E2,2.8447742E2,3.8361652E1,2.7248203E2,3.0916187E2,0E0,0E0,0E0,0E0,0E0,0E0,0E0,0E0,0E0,0E0,0E0,0E0,0E0,0E0,0E0,0E0,0E0,0E0,0E0,0E0,0E0,0E0,0E0,0E0,0E0,0E0,0E0,0E0,0E0,0E0,0E0,0E0,0E0,0E0,0E0,0E0,0E0,0E0],"parents":[2147483647,0,0,1,1,2,2,3,3,4,4,5,5,6,6,7,7,8,8,9,9,10,10,11,11,12,12,13,13,14,14,15,15,16,16,17,17,18,18,19,19,22,22,23,23,24,24,25,25,26,26,29,29,31,31,32,32,33,33,34,34,35,35,36,36,37,37,38,38,40,40,42,42,43,43,44,44,45,45,46,46,47,47,48,48,49,49,50,50],"right_children":[2,4,6,8,10,12,14,16,18,20,22,24,26,28,30,32,34,36,38,40,-1,-1,42,44,46,48,50,-1,-1,52,-1,54,56,58,60,62,64,66,68,-1,70,-1,72,74,76,78,80,82,84,86,88,-1,-1,-1,-1,-1,-1,-1,-1,-1,-1,-1,-1,-1,-1,-1,-1,-1,-1,-1,-1,-1,-1,-1,-1,-1,-1,-1,-1,-1,-1,-1,-1,-1,-1,-1,-1,-1,-1],"split_conditions":[1.5226764E1,1.4982228E1,2.9877E1,1.4693999E1,1.1541583E1,2.643871E2,4.093774E1,3.1999998E0,1.4016585E1,2.0928494E2,1.2004085E1,2.454882E2,2.729779E2,1.7106628E1,1.8440998E1,2.3999996E0,1.4512064E1,4.7E0,3E-1,1E-1,-1.9233708E0,-3.6796095E0,1.3591584E1,1.8576898E2,1.3741585E1,2.0746122E1,2.7771823E2,-5.2396776E-3,3.450165E-2,1.1873969E2,5.9936327E-1,1.4658676E1,4.3874164E0,4E0,1.365825E1,4.1813274E1,1.1806167E1,2.5843573E2,1.1000001E0,5.406646E0,1.503835E1,3.3741436E0,2.5440005E2,1.4450668E2,9.949916E0,1.0645751E1,2.3612417E1,1.9947836E1,9.172833E0,2.4133253E1,9.104082E0,5.1815534E-1,1.6683772E0,7.437751E-2,2.3556817E0,-1.2825403E0,1.7867484E0,-1.1859853E0,-5.1626716E-2,-3.2521975E0,-7.007155E-1,8.871403E-2,-3.4410937E0,1.7792299E0,-1.5814737E0,-4.2488605E-2,-2.2584877E0,3.411555E0,5.286619E-1,7.496243E-1,2.6269782E0,-2.4170704E-1,1.2966998E0,-1.9809219E-1,6.200224E-1,-1.1509616E0,-2.0291102E-1,4.3294898E-1,2.7788455E0,-6.869924E-1,6.046009E-1,-2.6952791E0,-7.8518033E-1,1.4242585E0,-3.1577837E-1,2.6042638E0,-1.8434945E-1,2.5149355E0,-6.246822E-1],"split_indices":[2,2,0,2,0,3,3,1,0,3,0,3,3,2,2,1,2,1,1,1,0,0,0,3,0,2,3,0,0,3,0,2,0,1,0,3,0,3,1,0,2,0,3,3,0,0,0,0,0,0,0,0,0,0,0,0,0,0,0,0,0,0,0,0,0,0,0,0,0,0,0,0,0,0,0,0,0,0,0,0,0,0,0,0,0,0,0,0,0],"split_type":[0,0,0,0,0,0,0,0,0,0,0,0,0,0,0,0,0,0,0,0,0,0,0,0,0,0,0,0,0,0,0,0,0,0,0,0,0,0,0,0,0,0,0,0,0,0,0,0,0,0,0,0,0,0,0,0,0,0,0,0,0,0,0,0,0,0,0,0,0,0,0,0,0,0,0,0,0,0,0,0,0,0,0,0,0,0,0,0,0],"sum_hessian":[2.723E3,1.478E3,1.245E3,1.413E3,6.5E1,1.231E3,1.4E1,1.348E3,6.5E1,1.4E1,5.1E1,1.129E3,1.02E2,2E0,1.2E1,1.186E3,1.62E2,2.2E1,4.3E1,1.3E1,1E0,3E0,4.8E1,1.003E3,1.26E2,3.4E1,6.8E1,1E0,1E0,8E0,4E0,1.154E3,3.2E1,1.56E2,6E0,1.7E1,5E0,3.4E1,9E0,7E0,6E0,3E0,4.5E1,6.79E2,3.24E2,2.6E1,1E2,3.1E1,3E0,1.2E1,5.6E1,2E0,6E0,1.143E3,1.1E1,3E0,2.9E1,2.3E1,1.33E2,4E0,2E0,3E0,1.4E1,4E0,1E0,2.6E1,8E0,3E0,6E0,2E0,4E0,3E1,1.5E1,5.22E2,1.57E2,4.9E1,2.75E2,1.4E1,1.2E1,4.6E1,5.4E1,1.1E1,2E1,1E0,2E0,7E0,5E0,2E0,5.4E1],"tree_param":{"num_deleted":"0","num_feature":"4","num_nodes":"89","size_leaf_vector":"1"}},{"base_weights":[1.4168394E-2,1.1946113E0,-6.536562E-2,2.115015E0,-1.2982711E0,-4.8024135E0,-2.4180625E-2,-5.6632316E-1,4.338241E0,7.1432147E0,-2.4732864E0,7.741346E0,-6.4438567E0,-1.4435139E0,4.8268408E-2,8.124951E-1,-1.072807E1,1.565123E1,2.1555102E0,2.821419E0,-6.2465405E-1,-4.038758E0,-5.4933006E-1,4.9013445E-1,2.9934711E0,-3.0808926E-1,-7.5085163E0,-1.6689001E-1,-3.731841E0,1.3594185E0,-2.7086386E-2,-7.4585714E0,2.0534728E0,-4.576035E-2,-3.739571E0,3.6164913E0,2.507743E1,-6.3758435E0,3.6187782E0,-1.1909845E0,-2.2865295E0,9.334556E-1,-1.5553135E0,8.46658E-1,-6.8767434E-1,-9.167421E0,-1.69366E0,3.1454143E-1,-6.156968E0,8.120742E0,-4.79717E0,3.4394395E-2,5.8191867E0,2.3341997E0,-6.067201E-2,-2.7118154E0,3.0394593E-1,4.047964E0,1.92812E-1,1.8013216E0,-2.3186724E-1,8.795642E0,5.8058286E-1,-2.4071994E0,-1.21461116E-1,1.8881987E0,5.069398E-1,-9.6711993E-1,1.4090462E0,1.0725025E0,-1.7767525E-1,-1.1178026E0,-3.1281734E0,5.998349E-1,-2.469915E0,-2.635957E-1,1.2425407E0,-4.4665518E-1,-2.0378466E0,3.390854E0,-2.1383573E-1,-1.9099892E0,-2.7811587E-1,-1.951826E-1,5.093887E0,5.388882E0,9.780104E-1,-2.759495E-2,2.5633998E0,-1.4203395E0,-1.1304901E-2],"categories":[],"categories_nodes":[],"categories_segments":[],"categories_sizes":[],"default_left":[0,0,0,0,0,0,0,0,0,0,0,0,0,0,0,0,0,0,0,0,0,0,0,0,0,0,0,0,0,0,0,0,0,0,0,0,0,0,0,0,0,0,0,0,0,0,0,0,0,0,0,0,0,0,0,0,0,0,0,0,0,0,0,0,0,0,0,0,0,0,0,0,0,0,0,0,0,0,0,0,0,0,0,0,0,0,0,0,0,0,0],"id":13,"left_children":[1,3,5,7,9,11,13,15,17,19,21,23,25,27,29,31,33,35,37,-1,-1,39,41,-1,-1,43,45,47,49,51,53,55,57,-1,-1,59,61,63,65,67,-1,69,-1,-1,-1,71,73,75,77,79,81,83,85,87,89,-1,-1,-1,-1,-1,-1,-1,-1,-1,-1,-1,-1,-1,-1,-1,-1,-1,-1,-1,-1,-1,-1,-1,-1,-1,-1,-1,-1,-1,-1,-1,-1,-1,-1,-1,-1],"loss_changes":[2.5582182E2,3.9739264E2,4.979622E2,7.535708E2,4.8385437E2,5.0286115E2,2.604335E2,8.2136615E2,1.6700951E3,1.4476257E2,1.2428113E2,2.4683624E1,1.2833685E2,3.5870117E2,2.3814832E2,5.490548E2,1.2669891E2,1.1571685E3,7.596085E2,0E0,0E0,2.256052E2,1.4229506E2,0E0,0E0,3.1313072E1,1.4846045E2,2.3264159E2,5.945402E2,7.7391815E2,1.8095763E2,1.0290375E2,7.3371246E2,0E0,0E0,6.752955E1,5.3218726E2,8.5321045E1,2.5254675E2,1.8269928E2,0E0,6.6601036E1,0E0,0E0,0E0,5.026587E1,1.3721498E2,3.4613898E2,7.695923E0,1.2049335E2,2.4313171E2,1.1950154E3,8.737715E2,4.829532E2,2.4146733E2,0E0,0E0,0E0,0E0,0E0,0E0,0E0,0E0,0E0,0E0,0E0,0E0,0E0,0E0,0E0,0E0,0E0,0E0,0E0,0E0,0E0,0E0,0E0,0E0,0E0,0E0,0E0,0E0,0E0,0E0,0E0,0E0,0E0,0E0,0E0,0E0],"parents":[2147483647,0,0,1,1,2,2,3,3,4,4,5,5,6,6,7,7,8,8,9,9,10,10,11,11,12,12,13,13,14,14,15,15,16,16,17,17,18,18,21,21,22,22,25,25,26,26,27,27,28,28,29,29,30,30,31,31,32,32,35,35,36,36,37,37,38,38,39,39,41,41,45,45,46,46,47,47,48,48,49,49,50,50,51,51,52,52,53,53,54,54],"right_children":[2,4,6,8,10,12,14,16,18,20,22,24,26,28,30,32,34,36,38,-1,-1,40,42,-1,-1,44,46,48,50,52,54,56,58,-1,-1,60,62,64,66,68,-1,70,-1,-1,-1,72,74,76,78,80,82,84,86,88,90,-1,-1,-1,-1,-1,-1,-1,-1,-1,-1,-1,-1,-1,-1,-1,-1,-1,-1,-1,-1,-1,-1,-1,-1,-1,-1,-1,-1,-1,-1,-1,-1,-1,-1,-1,-1],"split_conditions":[5.160333E0,2.1566973E1,5.3040833E0,1.2287555E1,2.2714468E1,8.225035E0,2.9144407E1,1.1592894E1,1.3363711E1,2E0,1E-1,5.227E0,3.6638954E1,2.2714468E1,6.681167E0,5.5370678E1,4.337942E1,3.7249167E0,1.4565548E1,2.821419E0,-6.2465405E-1,2.4310665E1,4.6E0,4.9013445E-1,2.9934711E0,2.3110207E1,8E-1,2.8901073E1,1.0739832E1,1.7999998E2,3.280763E1,1E-1,8.101796E1,-4.576035E-2,-3.739571E0,1.25807E1,4E-1,3.3999996E0,3.860605E1,2.3950148E1,-2.2865295E0,3.1478338E0,-1.5553135E0,8.46658E-1,-6.8767434E-1,4.2677673E1,1.594601E1,2.0323246E1,6.0187125E0,1.7479084E1,9.0000004E-1,2.6208397E1,1.8576898E2,2.0841585E1,6.7894993E0,-2.7118154E0,3.0394593E-1,4.047964E0,1.92812E-1,1.8013216E0,-2.3186724E-1,8.795642E0,5.8058286E-1,-2.4071994E0,-1.21461116E-1,1.8881987E0,5.069398E-1,-9.6711993E-1,1.4090462E0,1.0725025E0,-1.7767525E-1,-1.1178026E0,-3.1281734E0,5.998349E-1,-2.469915E0,-2.635957E-1,1.2425407E0,-4.4665518E-1,-2.0378466E0,3.390854E0,-2.1383573E-1,-1.9099892E0,-2.7811587E-1,-1.951826E-1,5.093887E0,5.388882E0,9.780104E-1,-2.759495E-2,2.5633998E0,-1.4203395E0,-1.1304901E-2],"split_indices":[0,2,0,2,3,2,3,2,2,1,1,0,3,3,0,3,3,0,2,0,0,2,1,0,0,2,1,2,2,3,3,1,3,0,0,2,1,1,3,2,0,0,0,0,0,3,2,3,3,0,1,2,3,0,0,0,0,0,0,0,0,0,0,0,0,0,0,0,0,0,0,0,0,0,0,0,0,0,0,0,0,0,0,0,0,0,0,0,0,0,0],"split_type":[0,0,0,0,0,0,0,0,0,0,0,0,0,0,0,0,0,0,0,0,0,0,0,0,0,0,0,0,0,0,0,0,0,0,0,0,0,0,0,0,0,0,0,0,0,0,0,0,0,0,0,0,0,0,0,0,0,0,0,0,0,0,0,0,0,0,0,0,0,0,0,0,0,0,0,0,0,0,0,0,0,0,0,0,0,0,0,0,0,0,0],"sum_hessian":[2.723E3,1.71E2,2.552E3,1.25E2,4.6E1,2.1E1,2.531E3,5.7E1,6.8E1,5E0,4.1E1,2E0,1.9E1,1.22E2,2.409E3,5.1E1,6E0,1E1,5.8E1,4E0,1E0,2.2E1,1.9E1,1E0,1E0,3E0,1.6E1,7.9E1,4.3E1,1.3E2,2.279E3,6E0,4.5E1,1E0,5E0,5E0,5E0,8E0,5E1,1.3E1,9E0,1.5E1,4E0,1E0,2E0,1.2E1,4E0,7.4E1,5E0,3E0,4E1,1.01E2,2.9E1,3.1E1,2.248E3,5E0,1E0,4E0,4.1E1,3E0,2E0,4E0,1E0,6E0,2E0,2E1,3E1,1E1,3E0,5E0,1E1,3E0,9E0,3E0,1E0,5.7E1,1.7E1,1E0,4E0,2E0,1E0,2.8E1,1.2E1,9.8E1,3E0,4E0,2.5E1,2.3E1,8E0,1E1,2.238E3],"tree_param":{"num_deleted":"0","num_feature":"4","num_nodes":"91","size_leaf_vector":"1"}},{"base_weights":[1.6501741E-2,-2.0067354E-4,3.499613E0,2.9618797E-1,-2.1794388E-1,4.2064223E0,4.5823014E-1,6.1113024E-1,-3.4528083E-1,-3.116554E-1,1.4368742E0,3.0426178E0,2.0275288E0,4.407847E-1,3.797083E0,-1.2733436E-1,-4.2510533E0,-2.2382613E-1,-2.2215388E0,2.7771416E0,-1.6597663E0,3.6335797E0,-1.6411744E-1,-8.6233544E-1,6.649E-1,5.447376E0,-4.5253096E0,-1.2246411E0,8.499928E-1,-6.510467E0,2.1059904E0,-9.890167E-1,-1.2181364E-2,-3.6761222E0,5.944881E-1,1.1602014E0,5.086838E0,-4.4813743E0,-5.892151E-1,1.1689477E0,3.08416E-1,5.7212856E-2,-4.2147713E0,1.7149469E0,9.861446E-2,1.2345704E0,4.222978E0,1.8898162E0,-2.213797E0,-6.090251E-1,5.489359E-1,5.78652E-1,-2.2130437E-1,2.0024358E-1,-2.1212566E0,-1.4906582E-1,2.268056E0,-8.3025254E-2,-1.2126229E0,1.5841272E0,-4.6167806E-2,5.651731E-1,-1.3371847E0,2.1014855E0,-1.0488042E-1,1.218742E0,-8.164629E-1,2.3703792E0,-1.4453717E-1,-2.1159883E0,3.8968506E-1,-4.6816072E-1,1.1058604E0],"categories":[],"categories_nodes":[],"categories_segments":[],"categories_sizes":[],"default_left":[0,0,0,0,0,0,0,0,0,0,0,0,0,0,0,0,0,0,0,0,0,0,0,0,0,0,0,0,0,0,0,0,0,0,0,0,0,0,0,0,0,0,0,0,0,0,0,0,0,0,0,0,0,0,0,0,0,0,0,0,0,0,0,0,0,0,0,0,0,0,0,0,0],"id":14,"left_children":[1,3,5,7,9,11,-1,13,15,17,19,21,-1,23,25,27,29,31,33,35,37,39,-1,41,43,45,47,49,51,53,55,57,59,61,63,65,67,69,71,-1,-1,-1,-1,-1,-1,-1,-1,-1,-1,-1,-1,-1,-1,-1,-1,-1,-1,-1,-1,-1,-1,-1,-1,-1,-1,-1,-1,-1,-1,-1,-1,-1,-1],"loss_changes":[1.5847313E2,1.7508784E2,1.1696381E1,2.3233846E2,2.4298593E2,6.1670074E0,0E0,4.1675784E2,3.2208215E2,2.4793112E2,3.5323682E2,1.8958672E1,0E0,2.1464543E2,5.602921E2,3.871149E2,3.0097482E2,2.2946907E2,2.684349E2,2.1444208E2,7.589708E1,7.893677E-1,0E0,1.5024104E3,1.0612375E3,3.214176E2,2.6274207E2,4.219428E2,3.2857867E2,6.505603E1,8.893614E1,6.664805E2,8.340871E2,1.9515784E2,1.4164612E2,4.1662775E2,3.7994653E2,1.13227585E2,8.880844E1,0E0,0E0,0E0,0E0,0E0,0E0,0E0,0E0,0E0,0E0,0E0,0E0,0E0,0E0,0E0,0E0,0E0,0E0,0E0,0E0,0E0,0E0,0E0,0E0,0E0,0E0,0E0,0E0,0E0,0E0,0E0,0E0,0E0,0E0],"parents":[2147483647,0,0,1,1,2,2,3,3,4,4,5,5,7,7,8,8,9,9,10,10,11,11,13,13,14,14,15,15,16,16,17,17,18,18,19,19,20,20,21,21,23,23,24,24,25,25,26,26,27,27,28,28,29,29,30,30,31,31,32,32,33,33,34,34,35,35,36,36,37,37,38,38],"right_children":[2,4,6,8,10,12,-1,14,16,18,20,22,-1,24,26,28,30,32,34,36,38,40,-1,42,44,46,48,50,52,54,56,58,60,62,64,66,68,70,72,-1,-1,-1,-1,-1,-1,-1,-1,-1,-1,-1,-1,-1,-1,-1,-1,-1,-1,-1,-1,-1,-1,-1,-1,-1,-1,-1,-1,-1,-1,-1,-1,-1,-1],"split_conditions":[3.0341583E1,1.2991584E1,1.7727943E1,9.000001E-1,2.9720685E2,1.7377226E1,4.5823014E-1,1.2489499E1,2.643871E2,2.7978232E2,2.534575E1,1.7287498E1,2.0275288E0,8.714677E0,2.2259734E2,1.4450668E2,2.1794127E1,1.5829085E1,2.582908E1,2.02895E1,2.603742E1,1.6516901E1,-1.6411744E-1,8.4963045E0,9.227524E0,6E-1,1.3849477E1,1.08E1,6.0000005E0,9.449572E0,3.1999998E0,1.5249917E1,1.6143667E1,1.8466585E1,2.603742E1,3.24782E2,1E-1,1.4264361E1,3.445603E2,1.1689477E0,3.08416E-1,5.7212856E-2,-4.2147713E0,1.7149469E0,9.861446E-2,1.2345704E0,4.222978E0,1.8898162E0,-2.213797E0,-6.090251E-1,5.489359E-1,5.78652E-1,-2.2130437E-1,2.0024358E-1,-2.1212566E0,-1.4906582E-1,2.268056E0,-8.3025254E-2,-1.2126229E0,1.5841272E0,-4.6167806E-2,5.651731E-1,-1.3371847E0,2.1014855E0,-1.0488042E-1,1.218742E0,-8.164629E-1,2.3703792E0,-1.4453717E-1,-2.1159883E0,3.8968506E-1,-4.6816072E-1,1.1058604E0],"split_indices":[0,0,2,1,3,2,0,0,3,3,0,2,0,2,3,3,2,0,0,0,0,2,0,2,2,1,2,1,1,2,1,0,0,0,0,3,1,2,3,0,0,0,0,0,0,0,0,0,0,0,0,0,0,0,0,0,0,0,0,0,0,0,0,0,0,0,0,0,0,0,0,0,0],"split_type":[0,0,0,0,0,0,0,0,0,0,0,0,0,0,0,0,0,0,0,0,0,0,0,0,0,0,0,0,0,0,0,0,0,0,0,0,0,0,0,0,0,0,0,0,0,0,0,0,0,0,0,0,0,0,0,0,0,0,0,0,0,0,0,0,0,0,0,0,0,0,0,0,0],"sum_hessian":[2.723E3,2.711E3,1.2E1,1.148E3,1.563E3,8E0,4E0,7.7E2,3.78E2,1.48E3,8.3E1,7E0,1E0,7.32E2,3.8E1,3.59E2,1.9E1,1.416E3,6.4E1,5.8E1,2.5E1,6E0,1E0,1.07E2,6.25E2,3.2E1,6E0,1.69E2,1.9E2,1.4E1,5E0,3.06E2,1.11E3,4.2E1,2.2E1,3.5E1,2.3E1,6E0,1.9E1,5E0,1E0,1E2,7E0,3.8E1,5.87E2,2.9E1,3E0,1E0,5E0,1.34E2,3.5E1,1.13E2,7.7E1,1E0,1.3E1,4E0,1E0,2.49E2,5.7E1,2.8E1,1.082E3,5E0,3.7E1,2E0,2E1,2E1,1.5E1,1.5E1,8E0,4E0,2E0,1.6E1,3E0],"tree_param":{"num_deleted":"0","num_feature":"4","num_nodes":"73","size_leaf_vector":"1"}},{"base_weights":[1.5255889E-2,8.782624E-1,-4.289232E-2,1.2178903E0,-3.751601E0,-2.8194504E0,-7.645391E-3,7.302153E-1,1.6287306E1,-5.926883E0,4.749874E0,4.349324E0,-4.4571886E0,2.8193555E0,-3.365074E-2,1.3728964E0,-5.4453588E0,5.5426474E0,1.1301854E0,-3.7582042E0,-2.7108493E0,1.9727315E0,1.6471195E-1,-1.6570718E0,-6.5009794E0,5.965168E0,-3.8246891E0,-5.212794E0,-1.0757477E-2,1.2901053E-2,4.2404323E0,-8.616893E0,5.430584E0,-1.6950918E0,1.8288574E-1,-5.1290834E-1,-2.4796796E0,-1.2011447E1,-2.4033196E0,1.1134564E1,3.3141556E0,-4.7280707E0,3.7484723E-1,-8.178096E0,3.6660337E0,1.2851061E0,-6.325873E-2,2.0459259E-1,-2.6347466E0,2.9867804E-1,2.3205009E0,1.2236848E0,-3.0425625E0,2.3585513E0,-2.7947617E-1,8.803059E-1,-3.715708E-1,-9.930591E-1,1.3874378E0,-3.9078577E0,-8.884472E-1,8.473473E-2,-1.4065607E0,1.0605912E0,4.5066915E0,-6.10376E-1,1.3762089E0,-2.5673552E0,-7.990398E-1,-4.7049913E-1,-3.6969655E0,-1.4798774E0,7.18009E-1,4.1610584E-1,-3.0149367E-2],"categories":[],"categories_nodes":[],"categories_segments":[],"categories_sizes":[],"default_left":[0,0,0,0,0,0,0,0,0,0,0,0,0,0,0,0,0,0,0,0,0,0,0,0,0,0,0,0,0,0,0,0,0,0,0,0,0,0,0,0,0,0,0,0,0,0,0,0,0,0,0,0,0,0,0,0,0,0,0,0,0,0,0,0,0,0,0,0,0,0,0,0,0,0,0],"id":15,"left_children":[1,3,5,7,9,11,13,15,17,19,21,-1,23,25,27,29,31,-1,-1,-1,33,-1,-1,35,37,39,41,43,45,47,49,51,53,-1,55,57,-1,59,61,63,65,67,-1,69,-1,71,73,-1,-1,-1,-1,-1,-1,-1,-1,-1,-1,-1,-1,-1,-1,-1,-1,-1,-1,-1,-1,-1,-1,-1,-1,-1,-1,-1,-1],"loss_changes":[1.367342E2,2.7502716E2,2.4982814E2,1.1712921E3,2.5006926E2,9.721722E2,1.855051E2,6.305971E2,6.7378174E1,1.7831335E2,1.9400513E1,0E0,1.6091302E2,5.0353607E2,2.9636264E2,5.5762177E2,5.6419617E2,0E0,0E0,0E0,6.908142E1,0E0,0E0,1.0161778E2,3.5499304E2,1.8236444E2,4.2579033E1,6.6856934E2,1.694871E2,5.826967E2,5.1390765E2,2.7369916E2,6.919617E1,0E0,2.3189833E1,2.0214018E2,0E0,2.5706726E1,6.883743E1,9.461133E1,9.105406E1,3.255533E1,0E0,2.5465588E2,0E0,6.8025055E2,1.2943248E2,0E0,0E0,0E0,0E0,0E0,0E0,0E0,0E0,0E0,0E0,0E0,0E0,0E0,0E0,0E0,0E0,0E0,0E0,0E0,0E0,0E0,0E0,0E0,0E0,0E0,0E0,0E0,0E0],"parents":[2147483647,0,0,1,1,2,2,3,3,4,4,5,5,6,6,7,7,8,8,9,9,10,10,12,12,13,13,14,14,15,15,16,16,20,20,23,23,24,24,25,25,26,26,27,27,28,28,29,29,30,30,31,31,32,32,34,34,35,35,37,37,38,38,39,39,40,40,41,41,43,43,45,45,46,46],"right_children":[2,4,6,8,10,12,14,16,18,20,22,-1,24,26,28,30,32,-1,-1,-1,34,-1,-1,36,38,40,42,44,46,48,50,52,54,-1,56,58,-1,60,62,64,66,68,-1,70,-1,72,74,-1,-1,-1,-1,-1,-1,-1,-1,-1,-1,-1,-1,-1,-1,-1,-1,-1,-1,-1,-1,-1,-1,-1,-1,-1,-1,-1,-1],"split_conditions":[5.160333E0,1.6141689E2,5.4978333E0,1.5417505E2,2.4951E2,7.145796E0,5.722833E0,1.2917366E2,1.5957758E2,7.9932976E0,4.3874164E0,4.349324E0,1E-1,1E-1,5.8144994E0,6.1840603E1,1.484732E2,5.5426474E0,1.1301854E0,-3.7582042E0,1.8796953E2,1.9727315E0,1.6471195E-1,1.4755759E2,4E-1,9.686609E0,2.0898611E1,1.7999998E2,6.681167E0,5.1401493E1,3.835333E0,8.404285E0,3.7249167E0,-1.6950918E0,3.4520006E0,1.1873969E2,-2.4796796E0,1.2485321E2,1.594601E1,6.9153743E0,1.0587918E1,2E-1,3.7484723E-1,1.2917366E2,3.6660337E0,8.714677E0,7.4128532E0,2.0459259E-1,-2.6347466E0,2.9867804E-1,2.3205009E0,1.2236848E0,-3.0425625E0,2.3585513E0,-2.7947617E-1,8.803059E-1,-3.715708E-1,-9.930591E-1,1.3874378E0,-3.9078577E0,-8.884472E-1,8.473473E-2,-1.4065607E0,1.0605912E0,4.5066915E0,-6.10376E-1,1.3762089E0,-2.5673552E0,-7.990398E-1,-4.7049913E-1,-3.6969655E0,-1.4798774E0,7.18009E-1,4.1610584E-1,-3.0149367E-2],"split_indices":[0,3,0,3,3,2,0,3,3,2,0,0,1,1,0,3,3,0,0,0,3,0,0,3,1,2,2,3,0,3,0,2,0,0,0,3,0,3,2,2,2,1,0,3,0,2,2,0,0,0,0,0,0,0,0,0,0,0,0,0,0,0,0,0,0,0,0,0,0,0,0,0,0,0,0],"split_type":[0,0,0,0,0,0,0,0,0,0,0,0,0,0,0,0,0,0,0,0,0,0,0,0,0,0,0,0,0,0,0,0,0,0,0,0,0,0,0,0,0,0,0,0,0,0,0,0,0,0,0,0,0,0,0,0,0,0,0,0,0,0,0,0,0,0,0,0,0,0,0,0,0,0,0],"sum_hessian":[2.723E3,1.71E2,2.552E3,1.6E2,1.1E1,3.1E1,2.521E3,1.56E2,4E0,9E0,2E0,2E0,2.9E1,2.2E1,2.499E3,1.42E2,1.4E1,3E0,1E0,2E0,7E0,1E0,1E0,1.3E1,1.6E1,1.5E1,7E0,1E1,2.489E3,9.7E1,4.5E1,1.1E1,3E0,3E0,4E0,1.2E1,1E0,6E0,1E1,4E0,1.1E1,6E0,1E0,9E0,1E0,9.6E1,2.393E3,9.1E1,6E0,2.4E1,2.1E1,1E0,1E1,2E0,1E0,1E0,3E0,8E0,4E0,5E0,1E0,5E0,5E0,2E0,2E0,2E0,9E0,1E0,5E0,4E0,5E0,1.4E1,8.2E1,5.9E1,2.334E3],"tree_param":{"num_deleted":"0","num_feature":"4","num_nodes":"75","size_leaf_vector":"1"}},{"base_weights":[1.1751849E-2,1.2133323E-1,-4.03484E-1,4.8763383E-2,5.2624903E0,-3.7643569E0,-1.9619855E-1,5.2941065E0,-1.0258115E-3,3.8782448E-1,6.464998E0,-3.9324737E0,-7.445313E-1,-9.275299E-2,-4.7142124E0,6.7268853E0,-3.2893033E0,1.6586004E-1,-5.35258E-1,6.125922E0,-2.791484E0,9.442499E0,3.6637466E0,3.3724892E0,-1.673643E0,-1.435632E-1,2.6439047E0,-8.911391E0,9.681985E-1,1.918122E0,1.1856831E1,-2.5520988E0,2.2623049E-1,-2.2502892E-1,-3.215605E0,4.6087876E-1,2.6020825E0,3.3824406E0,7.9809314E-1,3.7448437E0,2.0251408E0,-2.928606E0,3.9319305E0,-7.707023E-1,3.2362193E-1,-9.826637E0,-5.1298773E-1,-1.414655E0,1.9323698E0,-1.0467702E0,3.6759913E0,4.3532877E0,1.4734292E0,-1.1584654E0,6.295394E0,2.5694683E0,4.537539E-2,-1.331753E-1,8.5845196E-1,-1.969184E0,-3.3351313E-2,3.4961644E-1,9.52549E-3,1.1630752E0,2.3140813E-1,-3.0297697E0,-6.1953396E-1,-7.373752E-1,1.8431616E0,1.02826044E-1,-1.0864923E0,1.0908532E0,-1.14827946E-1,-3.258998E0,-6.9647884E-1,-3.0507231E-2,-9.9997675E-1],"categories":[],"categories_nodes":[],"categories_segments":[],"categories_sizes":[],"default_left":[0,0,0,0,0,0,0,0,0,0,0,0,0,0,0,0,0,0,0,0,0,0,0,0,0,0,0,0,0,0,0,0,0,0,0,0,0,0,0,0,0,0,0,0,0,0,0,0,0,0,0,0,0,0,0,0,0,0,0,0,0,0,0,0,0,0,0,0,0,0,0,0,0,0,0,0,0],"id":16,"left_children":[1,3,5,7,9,11,13,15,17,19,21,-1,23,25,27,29,-1,31,33,35,-1,37,39,-1,41,43,-1,45,47,49,51,53,55,57,59,-1,-1,-1,61,-1,63,65,67,69,71,73,-1,75,-1,-1,-1,-1,-1,-1,-1,-1,-1,-1,-1,-1,-1,-1,-1,-1,-1,-1,-1,-1,-1,-1,-1,-1,-1,-1,-1,-1,-1],"loss_changes":[1.2399673E2,8.0413184E2,3.9566095E2,5.554957E2,1.7334729E2,9.213987E2,2.5053961E2,5.396511E2,1.8802919E2,4.4632788E2,1.6558252E2,0E0,3.0836304E2,2.392823E2,2.9482913E2,4.4596222E2,0E0,2.6426093E2,4.1670026E2,4.514012E1,0E0,1.652326E2,1.7703416E2,0E0,1.873848E2,1.5377621E2,0E0,2.9334412E1,8.736075E1,6.575007E2,9.463635E1,1.1597421E3,9.8218524E2,3.0596936E2,5.3979504E2,0E0,0E0,0E0,8.074169E-1,0E0,2.7191872E1,1.091714E2,8.577097E1,7.1230554E2,7.0571027E2,2.1462036E1,0E0,1.22563095E1,0E0,0E0,0E0,0E0,0E0,0E0,0E0,0E0,0E0,0E0,0E0,0E0,0E0,0E0,0E0,0E0,0E0,0E0,0E0,0E0,0E0,0E0,0E0,0E0,0E0,0E0,0E0,0E0,0E0],"parents":[2147483647,0,0,1,1,2,2,3,3,4,4,5,5,6,6,7,7,8,8,9,9,10,10,12,12,13,13,14,14,15,15,17,17,18,18,19,19,21,21,22,22,24,24,25,25,27,27,28,28,29,29,30,30,31,31,32,32,33,33,34,34,38,38,40,40,41,41,42,42,43,43,44,44,45,45,47,47],"right_children":[2,4,6,8,10,12,14,16,18,20,22,-1,24,26,28,30,-1,32,34,36,-1,38,40,-1,42,44,-1,46,48,50,52,54,56,58,60,-1,-1,-1,62,-1,64,66,68,70,72,74,-1,76,-1,-1,-1,-1,-1,-1,-1,-1,-1,-1,-1,-1,-1,-1,-1,-1,-1,-1,-1,-1,-1,-1,-1,-1,-1,-1,-1,-1,-1],"split_conditions":[1.9839235E1,1.944E1,2.0188908E1,2.5207498E0,9.104082E0,9.502001E0,2.7771823E2,1.905281E1,9.000001E-1,9.031166E0,4.5525604E1,-3.9324737E0,1.0433249E1,2.7139713E2,1E-1,1.4565548E1,-3.2893033E0,3.835333E0,1.811841E1,1.9721298E1,-2.791484E0,2.603742E1,9.622833E0,3.3724892E0,1.2E0,5.0053173E1,2.6439047E0,2.501867E1,2.3950148E1,1.1407287E2,1.678156E1,1.7654688E1,4.3874164E0,2.4133253E1,3.9E0,4.6087876E-1,2.6020825E0,3.3824406E0,1E-1,3.7448437E0,4E-1,3.6638954E1,1.10374155E1,3.9278263E1,1.6141689E2,2.3576563E1,-5.1298773E-1,3.1999998E0,1.9323698E0,-1.0467702E0,3.6759913E0,4.3532877E0,1.4734292E0,-1.1584654E0,6.295394E0,2.5694683E0,4.537539E-2,-1.331753E-1,8.5845196E-1,-1.969184E0,-3.3351313E-2,3.4961644E-1,9.52549E-3,1.1630752E0,2.3140813E-1,-3.0297697E0,-6.1953396E-1,-7.373752E-1,1.8431616E0,1.02826044E-1,-1.0864923E0,1.0908532E0,-1.14827946E-1,-3.258998E0,-6.9647884E-1,-3.0507231E-2,-9.9997675E-1],"split_indices":[2,2,2,0,0,0,3,2,1,0,3,0,0,3,1,2,0,0,2,2,0,0,0,0,1,3,0,0,2,3,2,2,0,0,1,0,0,0,1,0,1,3,0,3,3,2,0,1,0,0,0,0,0,0,0,0,0,0,0,0,0,0,0,0,0,0,0,0,0,0,0,0,0,0,0,0,0],"split_type":[0,0,0,0,0,0,0,0,0,0,0,0,0,0,0,0,0,0,0,0,0,0,0,0,0,0,0,0,0,0,0,0,0,0,0,0,0,0,0,0,0,0,0,0,0,0,0,0,0,0,0,0,0,0,0,0,0,0,0,0,0,0,0,0,0,0,0,0,0,0,0,0,0,0,0,0,0],"sum_hessian":[2.723E3,2.155E3,5.68E2,2.126E3,2.9E1,3.2E1,5.36E2,1.9E1,2.107E3,6E0,2.3E1,7E0,2.5E1,5.25E2,1.1E1,1.8E1,1E0,1.606E3,5.01E2,4E0,2E0,1E1,1.3E1,1E0,2.4E1,5.23E2,2E0,6E0,5E0,1E1,8E0,3.4E1,1.572E3,4.5E2,5.1E1,2E0,2E0,8E0,2E0,1E0,1.2E1,2E1,4E0,2.23E2,3E2,5E0,1E0,4E0,1E0,7E0,3E0,5E0,3E0,3.3E1,1E0,1.3E1,1.559E3,4.21E2,2.9E1,2.4E1,2.7E1,1E0,1E0,4E0,8E0,1E0,1.9E1,1E0,3E0,1.61E2,6.2E1,5.2E1,2.48E2,4E0,1E0,3E0,1E0],"tree_param":{"num_deleted":"0","num_feature":"4","num_nodes":"77","size_leaf_vector":"1"}},